{"learner":{"attributes":{"best_iteration":"77","best_score":"0.9444113442034541"},"feature_names":["shortfall_ratio","claimed_amount","provider_flags_90d","low_trust","no_biometric","prescription_after_service","chronic_drug_no_condition","syndicate_signal","num_conditions","num_items"],"feature_types":[],"gradient_booster":{"model":{"gbtree_model_param":{"num_parallel_tree":"1","num_trees":"103"},"iteration_indptr":[0,1,2,3,4,5,6,7,8,9,10,11,12,13,14,15,16,17,18,19,20,21,22,23,24,25,26,27,28,29,30,31,32,33,34,35,36,37,38,39,40,41,42,43,44,45,46,47,48,49,50,51,52,53,54,55,56,57,58,59,60,61,62,63,64,65,66,67,68,69,70,71,72,73,74,75,76,77,78,79,80,81,82,83,84,85,86,87,88,89,90,91,92,93,94,95,96,97,98,99,100,101,102,103],"tree_info":[0,0,0,0,0,0,0,0,0,0,0,0,0,0,0,0,0,0,0,0,0,0,0,0,0,0,0,0,0,0,0,0,0,0,0,0,0,0,0,0,0,0,0,0,0,0,0,0,0,0,0,0,0,0,0,0,0,0,0,0,0,0,0,0,0,0,0,0,0,0,0,0,0,0,0,0,0,0,0,0,0,0,0,0,0,0,0,0,0,0,0,0,0,0,0,0,0,0,0,0,0,0,0],"trees":[{"base_weights":[-3.3429313E-1,-1.161413E0,4.4643E0,-1.2216325E0,-4.536011E-1,2.5056796E0,4.8312297E0,-1.2228729E0,-1.5628736E-2,-8.6115086E-1,1.0936176E0,1.4801127E0,3.602206E0,4.0823417E0,5.0445086E-1,-1.224114E0,-2.8405672E-2,-9.6320635E-1,1.8919622E0,6.43333E-1,2.6594574E0,-7.315889E-1,1.9641582E0,2.8299246E0,4.5419222E-1,3.3905618E0,4.533219E-1,-1.22772746E-1,-1.0410207E-1,-1.04862586E-1,4.4394907E-2,6.506911E-2,3.060791E-1,1.3049424E-2,1.9066356E-1,1.6174287E-1,3.0002567E-1,-5.017323E-3,-1.1054794E-1,1.4750464E-1,3.9204678E-1,1.7163174E-1,3.63705E-1,2.768385E-1,4.733045E-1],"categories":[],"categories_nodes":[],"categories_segments":[],"categories_sizes":[],"default_left":[0,0,0,0,0,0,0,0,0,0,0,0,0,0,0,0,0,0,0,0,0,0,0,0,0,0,0,0,0,0,0,0,0,0,0,0,0,0,0,0,0,0,0,0,0],"id":0,"left_children":[1,3,5,7,9,11,13,15,-1,17,19,21,23,25,-1,27,-1,29,31,33,35,37,39,41,-1,43,-1,-1,-1,-1,-1,-1,-1,-1,-1,-1,-1,-1,-1,-1,-1,-1,-1,-1,-1],"loss_changes":[2.4975562E4,2.2821582E2,6.528047E2,6.34375E0,2.6730396E2,1.6116571E2,1.0369141E2,5.4086914E0,0E0,9.592088E1,6.0695168E1,8.515567E1,3.856787E1,4.006421E1,0E0,1.9853516E0,0E0,3.936145E1,1.5865616E1,4.5141754E1,2.0540314E0,3.7076144E0,5.586754E1,3.1099426E1,0E0,4.8786987E1,0E0,0E0,0E0,0E0,0E0,0E0,0E0,0E0,0E0,0E0,0E0,0E0,0E0,0E0,0E0,0E0,0E0,0E0,0E0],"parents":[2147483647,0,0,1,1,2,2,3,3,4,4,5,5,6,6,7,7,9,9,10,10,11,11,12,12,13,13,15,15,17,17,18,18,19,19,20,20,21,21,22,22,23,23,25,25],"right_children":[2,4,6,8,10,12,14,16,-1,18,20,22,24,26,-1,28,-1,30,32,34,36,38,40,42,-1,44,-1,-1,-1,-1,-1,-1,-1,-1,-1,-1,-1,-1,-1,-1,-1,-1,-1,-1,-1],"split_conditions":[5E0,3E0,7E0,4.8E1,1.3046476E0,1.4064912E0,9E0,1.7540164E0,-1.5628736E-2,1E0,4E0,2E0,3.8E1,3E0,5.0445086E-1,1E0,-2.8405672E-2,1E0,3.2E1,1E0,1.4333644E0,9.819402E-1,1E0,3E0,4.5419222E-1,1E0,4.533219E-1,-1.22772746E-1,-1.0410207E-1,-1.04862586E-1,4.4394907E-2,6.506911E-2,3.060791E-1,1.3049424E-2,1.9066356E-1,1.6174287E-1,3.0002567E-1,-5.017323E-3,-1.1054794E-1,1.4750464E-1,3.9204678E-1,1.7163174E-1,3.63705E-1,2.768385E-1,4.733045E-1],"split_indices":[2,2,2,3,0,0,2,0,0,5,9,9,3,9,0,5,0,6,3,4,0,0,5,9,0,5,0,0,0,0,0,0,0,0,0,0,0,0,0,0,0,0,0,0,0],"split_type":[0,0,0,0,0,0,0,0,0,0,0,0,0,0,0,0,0,0,0,0,0,0,0,0,0,0,0,0,0,0,0,0,0,0,0,0,0,0,0,0,0,0,0,0,0],"sum_hessian":[6.2903335E3,5.3661445E3,9.24189E2,4.9447285E3,4.2141586E2,1.4705539E2,7.771336E2,4.9388306E3,5.898E0,3.3390582E2,8.751005E1,7.720054E1,6.985485E1,1.7672803E2,6.004056E2,4.9320063E3,6.8241434E0,3.2259756E2,1.1308265E1,6.9061165E1,1.8448883E1,1.3770221E1,6.3430317E1,4.0545254E1,2.9309597E1,7.309636E1,1.0363167E2,4.8309595E3,1.0104693E2,3.0437564E2,1.8221918E1,6.239138E0,5.069127E0,4.9905342E1,1.9155823E1,5.9628468E0,1.2486036E1,5.280571E0,8.48965E0,5.2146713E1,1.1283602E1,1.8351612E1,2.2193642E1,5.2040302E1,2.1056055E1],"tree_param":{"num_deleted":"0","num_feature":"10","num_nodes":"45","size_leaf_vector":"1"}},{"base_weights":[-3.1119087E-1,-1.130359E0,3.1140065E0,-1.1920875E0,-4.3639532E-1,1.838473E0,3.311392E0,-1.1998512E0,-9.876917E-1,-8.759961E-1,9.87758E-1,2.8383303E-1,2.4733245E0,2.888788E0,3.4223046E0,-1.2038954E0,-1.0892087E0,-1.2006364E-1,-6.535478E-2,-9.781647E-1,4.8409563E-1,-8.230297E-1,1.3721583E0,-9.3483216E-1,1.3110578E0,1.0726905E0,2.720958E0,1.9414953E0,3.026158E0,3.235231E0,3.5003987E-1,-1.2053329E-1,-9.8283455E-2,-4.599499E-2,-1.1587844E-1,-1.14369236E-1,1.1536789E-1,-1.0337763E-1,5.7291936E-2,-1.10141054E-1,1.7717789E-1,-1.1493635E-1,-4.633009E-4,1.0878568E-1,3.3335048E-1,-8.212364E-3,-1.1880902E-1,-1.10985376E-1,2.1695499E-1,-2.684567E-2,1.8471622E-1,1.5819982E-1,2.902989E-1,-1.1410004E-2,2.3714721E-1,2.5725648E-1,3.2427487E-1,1.4766483E-1,3.271893E-1],"categories":[],"categories_nodes":[],"categories_segments":[],"categories_sizes":[],"default_left":[0,0,0,0,0,0,0,0,0,0,0,0,0,0,0,0,0,0,0,0,0,0,0,0,0,0,0,0,0,0,0,0,0,0,0,0,0,0,0,0,0,0,0,0,0,0,0,0,0,0,0,0,0,0,0,0,0,0,0],"id":1,"left_children":[1,3,5,7,9,11,13,15,17,19,21,23,25,27,29,31,33,-1,35,37,39,41,43,45,47,49,51,53,55,57,-1,-1,-1,-1,-1,-1,-1,-1,-1,-1,-1,-1,-1,-1,-1,-1,-1,-1,-1,-1,-1,-1,-1,-1,-1,-1,-1,-1,-1],"loss_changes":[1.7370195E4,2.1348096E2,2.9474316E2,6.09375E0,2.5732874E2,1.5955206E2,3.8554688E1,6.640625E-1,3.400026E1,4.4044647E1,6.871257E1,6.157644E1,3.7024048E1,2.2917969E1,5.566406E-1,1.6601562E-1,6.7421417E0,0E0,4.5491627E1,2.577774E1,4.8045513E1,4.702345E0,4.1242508E1,4.790329E0,5.764111E1,2.0181385E1,1.5561401E1,2.7504639E1,1.0466797E1,1.14609375E1,0E0,0E0,0E0,0E0,0E0,0E0,0E0,0E0,0E0,0E0,0E0,0E0,0E0,0E0,0E0,0E0,0E0,0E0,0E0,0E0,0E0,0E0,0E0,0E0,0E0,0E0,0E0,0E0,0E0],"parents":[2147483647,0,0,1,1,2,2,3,3,4,4,5,5,6,6,7,7,8,8,9,9,10,10,11,11,12,12,13,13,14,14,15,15,16,16,18,18,19,19,20,20,21,21,22,22,23,23,24,24,25,25,26,26,27,27,28,28,29,29],"right_children":[2,4,6,8,10,12,14,16,18,20,22,24,26,28,30,32,34,-1,36,38,40,42,44,46,48,50,52,54,56,58,-1,-1,-1,-1,-1,-1,-1,-1,-1,-1,-1,-1,-1,-1,-1,-1,-1,-1,-1,-1,-1,-1,-1,-1,-1,-1,-1,-1,-1],"split_conditions":[5E0,3E0,7E0,1.4538538E0,1.3046476E0,5.3118248E1,9E0,1.19965195E2,2E0,1.12050476E2,2E0,3E0,2E0,2E0,1.1E1,6E0,1.2335623E2,-1.2006364E-1,3E0,1E0,1.0091491E0,1.5181468E0,1E0,9.010271E-1,1.1434047E0,1.383977E0,1.0695008E0,5.2162224E1,7.164415E1,3.3227497E1,3.5003987E-1,-1.2053329E-1,-9.8283455E-2,-4.599499E-2,-1.1587844E-1,-1.14369236E-1,1.1536789E-1,-1.0337763E-1,5.7291936E-2,-1.10141054E-1,1.7717789E-1,-1.1493635E-1,-4.633009E-4,1.0878568E-1,3.3335048E-1,-8.212364E-3,-1.1880902E-1,-1.10985376E-1,2.1695499E-1,-2.684567E-2,1.8471622E-1,1.5819982E-1,2.902989E-1,-1.1410004E-2,2.3714721E-1,2.5725648E-1,3.2427487E-1,1.4766483E-1,3.271893E-1],"split_indices":[2,2,2,0,0,1,2,1,2,1,9,9,9,9,2,9,1,0,9,5,0,0,5,0,0,0,0,1,1,1,0,0,0,0,0,0,0,0,0,0,0,0,0,0,0,0,0,0,0,0,0,0,0,0,0,0,0,0,0],"split_type":[0,0,0,0,0,0,0,0,0,0,0,0,0,0,0,0,0,0,0,0,0,0,0,0,0,0,0,0,0,0,0,0,0,0,0,0,0,0,0,0,0,0,0,0,0,0,0,0,0,0,0,0,0,0,0,0,0,0,0],"sum_hessian":[6.188534E3,4.994679E3,1.1938546E3,4.5860317E3,4.0864752E2,1.6137044E2,1.0324841E3,4.413521E3,1.7251103E2,3.1255457E2,9.609293E1,4.7209576E1,1.1416086E2,2.2026498E2,8.122192E2,4.24835E3,1.6517072E2,1.3990802E2,3.2603016E1,2.9097748E2,2.1577091E1,1.6627064E1,7.946587E1,2.1633846E1,2.557573E1,1.7952414E1,9.620845E1,2.9812687E1,1.9045229E2,2.5170044E2,5.6051874E2,4.216481E3,3.1869253E1,1.7202055E1,1.4796866E2,1.7332644E1,1.5270373E1,2.8122803E2,9.749472E0,9.735081E0,1.18420105E1,1.1597984E1,5.0290794E0,7.076323E1,8.7026415E0,5.257236E0,1.637661E1,6.618643E0,1.8957087E1,6.811081E0,1.1141333E1,1.459279E1,8.1615654E1,5.2843533E0,2.4528334E1,6.571223E1,1.2474007E2,5.9831395E0,2.457173E2],"tree_param":{"num_deleted":"0","num_feature":"10","num_nodes":"59","size_leaf_vector":"1"}},{"base_weights":[-3.0523252E-1,-1.1022794E0,2.4632792E0,-1.1672565E0,-4.1710663E-1,1.7924719E0,2.656558E0,-1.1728555E0,-7.6012725E-1,-8.8211685E-1,8.899135E-1,1.4621432E0,2.8005338E0,2.4440002E0,2.7248022E-1,-1.17702805E-1,-1.0451493E0,-1.056015E0,1.9990072E-1,-9.72852E-1,1.079898E0,6.949754E-1,2.8299376E-1,7.551446E-1,1.98175E0,1.6663428E-1,2.8661713E-1,1.4876416E0,2.5569248E0,-1.12736344E-1,-3.0121071E-2,-1.1607962E-1,-4.55784E-2,-1.03006564E-1,1.7115533E-2,-2.714602E-2,2.2968681E-1,2.9325092E-2,1.561924E-1,5.1415887E-2,2.0799148E-1,1.2669794E-2,2.107975E-1,4.623256E-2,2.2184387E-1,2.5976312E-1,7.063E-2],"categories":[],"categories_nodes":[],"categories_segments":[],"categories_sizes":[],"default_left":[0,0,0,0,0,0,0,0,0,0,0,0,0,0,0,0,0,0,0,0,0,0,0,0,0,0,0,0,0,0,0,0,0,0,0,0,0,0,0,0,0,0,0,0,0,0,0],"id":2,"left_children":[1,3,5,7,9,11,13,15,17,19,21,23,25,27,-1,-1,29,31,-1,33,35,37,-1,39,41,-1,-1,43,45,-1,-1,-1,-1,-1,-1,-1,-1,-1,-1,-1,-1,-1,-1,-1,-1,-1,-1],"loss_changes":[1.310771E4,2.0484229E2,1.674043E2,8.709961E0,2.4453015E2,9.583557E1,8.26416E0,9.8291016E-1,5.1079254E1,5.3799927E1,3.8021828E1,8.230722E1,6.566162E-1,2.4246704E1,0E0,0E0,8.242813E0,2.9191017E0,0E0,1.8747437E1,2.2942083E1,3.3467056E1,0E0,3.0297554E1,3.0377014E1,0E0,0E0,2.131945E1,1.5560547E1,0E0,0E0,0E0,0E0,0E0,0E0,0E0,0E0,0E0,0E0,0E0,0E0,0E0,0E0,0E0,0E0,0E0,0E0],"parents":[2147483647,0,0,1,1,2,2,3,3,4,4,5,5,6,6,7,7,8,8,9,9,10,10,11,11,12,12,13,13,16,16,17,17,19,19,20,20,21,21,23,23,24,24,27,27,28,28],"right_children":[2,4,6,8,10,12,14,16,18,20,22,24,26,28,-1,-1,30,32,-1,34,36,38,-1,40,42,-1,-1,44,46,-1,-1,-1,-1,-1,-1,-1,-1,-1,-1,-1,-1,-1,-1,-1,-1,-1,-1],"split_conditions":[5E0,3E0,8E0,1.5572169E0,1.3046476E0,1E0,1E1,5E0,3.5E1,1E0,4.2E1,3E0,1.7E1,2E0,2.7248022E-1,-1.17702805E-1,2.8E1,2E0,1.9990072E-1,5E0,4E0,1E0,2.8299376E-1,1E0,9.692347E-1,1.6663428E-1,2.8661713E-1,1E0,2E0,-1.12736344E-1,-3.0121071E-2,-1.1607962E-1,-4.55784E-2,-1.03006564E-1,1.7115533E-2,-2.714602E-2,2.2968681E-1,2.9325092E-2,1.561924E-1,5.1415887E-2,2.0799148E-1,1.2669794E-2,2.107975E-1,4.623256E-2,2.2184387E-1,2.5976312E-1,7.063E-2],"split_indices":[2,2,2,0,0,5,2,9,3,5,3,9,3,9,0,0,3,2,0,9,2,4,0,6,0,0,0,4,8,0,0,0,0,0,0,0,0,0,0,0,0,0,0,0,0,0,0],"split_type":[0,0,0,0,0,0,0,0,0,0,0,0,0,0,0,0,0,0,0,0,0,0,0,0,0,0,0,0,0,0,0,0,0,0,0,0,0,0,0,0,0,0,0,0,0,0,0],"sum_hessian":[5.9379087E3,4.6110127E3,1.3268959E3,4.210969E3,4.0004324E2,2.9909827E2,1.0277976E3,4.1519883E3,5.898116E1,2.9530502E2,1.0473821E2,2.2712334E2,7.197492E1,2.5873563E2,7.69062E2,4.012667E3,1.3932124E2,5.382614E1,5.1550155E0,2.827339E2,1.257113E1,9.640904E1,8.329173E0,9.7251816E1,1.2987152E2,5.3809724E0,6.659395E1,2.8821358E1,2.2991426E2,1.2499265E2,1.4328583E1,4.503122E1,8.794921E0,2.6936227E2,1.3371631E1,6.3248143E0,6.2463155E0,6.6795685E1,2.9613356E1,8.3458244E1,1.3793576E1,8.4016285E0,1.2146989E2,1.2673265E1,1.6148092E1,2.2457095E2,5.3433037E0],"tree_param":{"num_deleted":"0","num_feature":"10","num_nodes":"47","size_leaf_vector":"1"}},{"base_weights":[-2.969405E-1,-1.0769902E0,2.0809004E0,-1.1470057E0,-3.7320122E-1,1.3091342E0,2.2027617E0,-1.155915E0,-9.185505E-1,-8.3490384E-1,6.5502614E-1,1.6631787E-1,1.6853838E0,1.9249738E0,2.2732286E0,-1.1606785E0,-1.0268933E0,-1.1561226E-1,1.2153908E-2,-9.197883E-1,3.0066594E-1,-8.684007E-1,9.476026E-1,-9.8299444E-1,1.1951936E0,1.4611849E0,2.6112416E-1,1.7138426E0,2.4348159E-1,2.0624523E0,2.315642E0,-1.1623465E-1,-9.161605E-2,-1.1568516E-1,-1.631125E-2,-1.100378E-1,1.0868982E-1,-1.0240449E-1,5.626269E-2,-1.1527034E-1,-2.6187066E-3,4.9350098E-2,1.7626654E-1,-3.9133847E-2,-1.2165346E-1,-1.0989165E-1,2.030628E-1,5.3745817E-2,1.6341417E-1,1.4248969E-1,2.3386545E-1,1.8268663E-1,2.2704862E-1,1.3595574E-1,2.3257673E-1],"categories":[],"categories_nodes":[],"categories_segments":[],"categories_sizes":[],"default_left":[0,0,0,0,0,0,0,0,0,0,0,0,0,0,0,0,0,0,0,0,0,0,0,0,0,0,0,0,0,0,0,0,0,0,0,0,0,0,0,0,0,0,0,0,0,0,0,0,0,0,0,0,0,0,0],"id":3,"left_children":[1,3,5,7,9,11,13,15,17,19,21,23,25,27,29,31,33,-1,35,37,-1,39,41,43,45,47,-1,49,-1,51,53,-1,-1,-1,-1,-1,-1,-1,-1,-1,-1,-1,-1,-1,-1,-1,-1,-1,-1,-1,-1,-1,-1,-1,-1],"loss_changes":[1.0524835E4,2.1009814E2,1.289419E2,6.8466797E0,1.8477112E2,8.2967926E1,1.9291504E1,1.1040039E0,3.3336235E1,9.023715E1,5.467117E1,5.9191998E1,2.6396027E1,2.286444E1,3.7963867E0,4.013672E-1,1.5715958E1,0E0,3.9022472E1,4.1255844E1,0E0,4.7553024E0,3.6818222E1,2.801981E0,5.2712746E1,1.820427E1,0E0,2.9344238E1,0E0,4.1728516E0,4.4868164E0,0E0,0E0,0E0,0E0,0E0,0E0,0E0,0E0,0E0,0E0,0E0,0E0,0E0,0E0,0E0,0E0,0E0,0E0,0E0,0E0,0E0,0E0,0E0,0E0],"parents":[2147483647,0,0,1,1,2,2,3,3,4,4,5,5,6,6,7,7,8,8,9,9,10,10,11,11,12,12,13,13,14,14,15,15,16,16,18,18,19,19,21,21,22,22,23,23,24,24,25,25,27,27,29,29,30,30],"right_children":[2,4,6,8,10,12,14,16,18,20,22,24,26,28,30,32,34,-1,36,38,-1,40,42,44,46,48,-1,50,-1,52,54,-1,-1,-1,-1,-1,-1,-1,-1,-1,-1,-1,-1,-1,-1,-1,-1,-1,-1,-1,-1,-1,-1,-1,-1],"split_conditions":[5E0,3E0,7E0,1.4538538E0,1.2585045E0,5.0054478E1,9E0,1.19965195E2,2E0,1E0,2E0,1.2746608E0,4.6E1,1E0,2.3E1,6E0,2.8E1,-1.1561226E-1,3E0,1E0,3.0066594E-1,7.430561E1,1E0,8.80828E-1,3E0,2E0,2.6112416E-1,1.7540164E0,2.4348159E-1,1.0190089E2,2.7442675E1,-1.1623465E-1,-9.161605E-2,-1.1568516E-1,-1.631125E-2,-1.100378E-1,1.0868982E-1,-1.0240449E-1,5.626269E-2,-1.1527034E-1,-2.6187066E-3,4.9350098E-2,1.7626654E-1,-3.9133847E-2,-1.2165346E-1,-1.0989165E-1,2.030628E-1,5.3745817E-2,1.6341417E-1,1.4248969E-1,2.3386545E-1,1.8268663E-1,2.2704862E-1,1.3595574E-1,2.3257673E-1],"split_indices":[2,2,2,0,0,1,2,1,2,7,9,0,3,6,3,9,3,0,9,6,0,1,4,0,9,9,0,0,0,1,1,0,0,0,0,0,0,0,0,0,0,0,0,0,0,0,0,0,0,0,0,0,0,0,0],"split_type":[0,0,0,0,0,0,0,0,0,0,0,0,0,0,0,0,0,0,0,0,0,0,0,0,0,0,0,0,0,0,0,0,0,0,0,0,0,0,0,0,0,0,0,0,0,0,0,0,0,0,0,0,0,0,0],"sum_hessian":[5.6720645E3,4.2713853E3,1.400679E3,3.8843286E3,3.8705676E2,1.9260753E2,1.2080714E3,3.734624E3,1.4970454E2,2.6724457E2,1.198122E2,4.8063133E1,1.4454439E2,2.5017441E2,9.5789703E2,3.5939414E3,1.4068262E2,1.1906879E2,3.0635757E1,2.622112E2,5.0333385E0,1.8985872E1,1.0082633E2,2.2723875E1,2.5339256E1,1.18441635E2,2.6102762E1,1.7999716E2,7.0177246E1,1.6877736E2,7.891197E2,3.5658633E3,2.8078064E1,1.2198965E2,1.8692965E1,1.5041526E1,1.5594232E1,2.4527081E2,1.6940416E1,1.3918725E1,5.0671477E0,6.578214E1,3.504419E1,7.188371E0,1.5535503E1,6.6801434E0,1.8659113E1,1.9327093E1,9.911454E1,1.2532215E2,5.4675007E1,8.373449E1,8.504287E1,9.68697E0,7.7943274E2],"tree_param":{"num_deleted":"0","num_feature":"10","num_nodes":"55","size_leaf_vector":"1"}},{"base_weights":[-2.8355074E-1,-1.0567052E0,1.8252827E0,-1.1261034E0,-3.8345388E-1,1.2980847E0,1.9729677E0,-1.1293277E0,-4.664414E-1,-6.773143E-1,9.104102E-1,3.3400264E-1,1.4724703E0,1.7707947E0,2.0249083E0,-1.1309384E0,-1.2567517E-2,-1.069166E-1,9.912638E-2,-8.1068736E-1,1.0670935E0,3.2103646E-1,1.5822667E0,-3.5604578E-1,1.0127976E0,1.2640344E0,2.0481627E0,1.100678E0,1.8520644E0,1.3194394E-1,2.031071E-1,-1.1420877E-1,-1.0639457E-1,-9.201042E-2,1.1096113E-1,-1.0567478E-1,2.2859982E-1,-1.06552325E-1,6.5067716E-2,2.2068524E-1,-1.873795E-3,-9.38915E-2,1.5319034E-1,2.1122761E-1,5.467364E-2,1.02574505E-1,1.9535223E-1,1.0262822E-1,2.1361907E-1,-1.1656008E-2,1.5512456E-1,1.675028E-1,2.0050406E-1],"categories":[],"categories_nodes":[],"categories_segments":[],"categories_sizes":[],"default_left":[0,0,0,0,0,0,0,0,0,0,0,0,0,0,0,0,0,0,0,0,0,0,0,0,0,0,0,0,0,0,0,0,0,0,0,0,0,0,0,0,0,0,0,0,0,0,0,0,0,0,0,0,0],"id":4,"left_children":[1,3,5,7,9,11,13,15,17,19,21,23,25,27,29,31,-1,-1,-1,33,35,37,39,41,43,45,47,49,51,-1,-1,-1,-1,-1,-1,-1,-1,-1,-1,-1,-1,-1,-1,-1,-1,-1,-1,-1,-1,-1,-1,-1,-1],"loss_changes":[8.795194E3,1.83979E2,1.1011621E2,7.0825195E0,1.4142776E2,5.3242126E1,8.265625E0,5.612793E0,1.7845293E1,7.1214615E1,2.6802872E1,2.3897934E1,2.9853271E1,1.0958252E1,1.1936035E0,1.4389648E0,0E0,0E0,0E0,6.0160645E1,5.913147E1,1.8059757E1,3.201596E1,2.9673653E1,1.1959019E1,3.103769E1,4.127411E0,1.5689251E1,2.3659668E0,0E0,0E0,0E0,0E0,0E0,0E0,0E0,0E0,0E0,0E0,0E0,0E0,0E0,0E0,0E0,0E0,0E0,0E0,0E0,0E0,0E0,0E0,0E0,0E0],"parents":[2147483647,0,0,1,1,2,2,3,3,4,4,5,5,6,6,7,7,8,8,9,9,10,10,11,11,12,12,13,13,14,14,15,15,19,19,20,20,21,21,22,22,23,23,24,24,25,25,26,26,27,27,28,28],"right_children":[2,4,6,8,10,12,14,16,18,20,22,24,26,28,30,32,-1,-1,-1,34,36,38,40,42,44,46,48,50,52,-1,-1,-1,-1,-1,-1,-1,-1,-1,-1,-1,-1,-1,-1,-1,-1,-1,-1,-1,-1,-1,-1,-1,-1],"split_conditions":[5E0,3E0,8E0,4.3E1,1.4064912E0,1.0988362E0,2.5E1,1.7540164E0,1.2364283E0,1.19965195E2,6.2987686E1,6.758061E1,1E0,2E0,2.7442675E1,2E0,-1.2567517E-2,-1.069166E-1,9.912638E-2,1E0,3E0,2E0,1.0190089E2,1E0,7.224444E1,1E0,1.201609E0,6.981583E1,1E0,1.3194394E-1,2.031071E-1,-1.1420877E-1,-1.0639457E-1,-9.201042E-2,1.1096113E-1,-1.0567478E-1,2.2859982E-1,-1.06552325E-1,6.5067716E-2,2.2068524E-1,-1.873795E-3,-9.38915E-2,1.5319034E-1,2.1122761E-1,5.467364E-2,1.02574505E-1,1.9535223E-1,1.0262822E-1,2.1361907E-1,-1.1656008E-2,1.5512456E-1,1.675028E-1,2.0050406E-1],"split_indices":[2,2,2,3,0,0,3,0,0,1,1,1,6,9,1,2,0,0,0,5,9,9,1,5,1,5,0,1,4,0,0,0,0,0,0,0,0,0,0,0,0,0,0,0,0,0,0,0,0,0,0,0,0],"split_type":[0,0,0,0,0,0,0,0,0,0,0,0,0,0,0,0,0,0,0,0,0,0,0,0,0,0,0,0,0,0,0,0,0,0,0,0,0,0,0,0,0,0,0,0,0,0,0,0,0,0,0,0,0],"sum_hessian":[5.3921396E3,3.9459485E3,1.4461909E3,3.576603E3,3.6934564E2,3.1861328E2,1.1275776E3,3.558498E3,1.8104904E1,3.0137445E2,6.797118E1,4.9250347E1,2.6936295E2,2.3764835E2,8.899293E2,3.5526694E3,5.8285537E0,1.2997362E1,5.107541E0,2.8046597E2,2.0908459E1,3.6995445E1,3.097574E1,2.4658508E1,2.4591839E1,2.0010748E2,6.9255455E1,2.7276949E1,2.103714E2,9.569467E0,8.803598E2,3.0320142E3,5.206554E2,2.6583954E2,1.4626443E1,7.6726065E0,1.3235852E1,6.6771464E0,3.03183E1,2.2010546E1,8.965195E0,1.9225632E1,5.4328766E0,6.269459E0,1.832238E1,1.5056084E2,4.9546642E1,6.496683E0,6.2758774E1,7.569298E0,1.9707651E1,1.0305613E2,1.0731527E2],"tree_param":{"num_deleted":"0","num_feature":"10","num_nodes":"53","size_leaf_vector":"1"}},{"base_weights":[-2.8028747E-1,-1.036992E0,1.6236367E0,-1.1067908E0,-3.8733268E-1,7.295352E-1,1.6970774E0,-1.1188031E0,-8.124026E-1,-7.9358184E-1,4.043161E-1,5.5181812E-2,1.1244917E0,1.441243E0,1.7960556E0,-1.1243037E0,-9.7105324E-1,-9.379887E-1,1.883667E-1,-8.8451266E-1,2.3772554E-1,-5.187592E-1,7.5446147E-1,-7.217261E-1,8.833344E-1,2.6097184E-1,1.2815324E0,1.2854424E0,1.9866395E-1,1.2740631E0,1.8082649E0,-1.1262524E-1,-8.400707E-2,-1.12131275E-1,-9.540643E-3,-1.1209635E-1,-2.076698E-2,-1.02735244E-1,6.442725E-2,-9.986179E-2,1.2981375E-1,2.9371126E-2,1.46865E-1,-2.967723E-2,-1.19040824E-1,1.3129251E-2,1.3609844E-1,-3.2902498E-2,9.045522E-2,4.847682E-2,1.467217E-1,1.0877042E-1,1.8682924E-1,5.2353162E-2,1.7214139E-1,1.7385636E-1,1.871259E-1],"categories":[],"categories_nodes":[],"categories_segments":[],"categories_sizes":[],"default_left":[0,0,0,0,0,0,0,0,0,0,0,0,0,0,0,0,0,0,0,0,0,0,0,0,0,0,0,0,0,0,0,0,0,0,0,0,0,0,0,0,0,0,0,0,0,0,0,0,0,0,0,0,0,0,0,0,0],"id":5,"left_children":[1,3,5,7,9,11,13,15,17,19,21,23,25,27,29,31,33,35,-1,37,-1,39,41,43,45,47,49,51,-1,53,55,-1,-1,-1,-1,-1,-1,-1,-1,-1,-1,-1,-1,-1,-1,-1,-1,-1,-1,-1,-1,-1,-1,-1,-1,-1,-1],"loss_changes":[7.33678E3,1.648064E2,9.386914E1,1.07248535E1,1.14509E2,2.9686543E1,3.1284668E1,1.4748535E0,4.66736E1,6.985408E1,3.9523834E1,2.7857447E1,9.210648E0,2.958551E1,3.817627E0,7.368164E-1,1.5773224E1,1.6790825E1,0E0,5.0703705E1,0E0,3.0842493E1,2.8587112E1,4.103896E0,7.3387566E0,4.887074E0,8.062103E0,3.2200043E1,0E0,7.605732E0,8.569336E-1,0E0,0E0,0E0,0E0,0E0,0E0,0E0,0E0,0E0,0E0,0E0,0E0,0E0,0E0,0E0,0E0,0E0,0E0,0E0,0E0,0E0,0E0,0E0,0E0,0E0,0E0],"parents":[2147483647,0,0,1,1,2,2,3,3,4,4,5,5,6,6,7,7,8,8,9,9,10,10,11,11,12,12,13,13,14,14,15,15,16,16,17,17,19,19,21,21,22,22,23,23,24,24,25,25,26,26,27,27,29,29,30,30],"right_children":[2,4,6,8,10,12,14,16,18,20,22,24,26,28,30,32,34,36,-1,38,-1,40,42,44,46,48,50,52,-1,54,56,-1,-1,-1,-1,-1,-1,-1,-1,-1,-1,-1,-1,-1,-1,-1,-1,-1,-1,-1,-1,-1,-1,-1,-1,-1,-1],"split_conditions":[5E0,3E0,6E0,1.4538538E0,1.2585045E0,5.765924E1,9E0,1.19965195E2,3.8E1,1E0,3.9344406E1,1.3507634E0,1.061946E0,1.8601928E0,3.233956E1,6E0,2.8E1,2E0,1.883667E-1,1.12050476E2,2.3772554E-1,4E0,1E0,3.3E1,3E0,8.941032E1,2E0,1E0,1.9866395E-1,1.2E1,1.2E1,-1.1262524E-1,-8.400707E-2,-1.12131275E-1,-9.540643E-3,-1.1209635E-1,-2.076698E-2,-1.02735244E-1,6.442725E-2,-9.986179E-2,1.2981375E-1,2.9371126E-2,1.46865E-1,-2.967723E-2,-1.19040824E-1,1.3129251E-2,1.3609844E-1,-3.2902498E-2,9.045522E-2,4.847682E-2,1.467217E-1,1.0877042E-1,1.8682924E-1,5.2353162E-2,1.7214139E-1,1.7385636E-1,1.871259E-1],"split_indices":[2,2,2,0,0,1,2,1,3,7,1,0,0,0,1,9,3,2,0,1,0,9,4,3,9,1,9,5,0,2,2,0,0,0,0,0,0,0,0,0,0,0,0,0,0,0,0,0,0,0,0,0,0,0,0,0,0],"split_type":[0,0,0,0,0,0,0,0,0,0,0,0,0,0,0,0,0,0,0,0,0,0,0,0,0,0,0,0,0,0,0,0,0,0,0,0,0,0,0,0,0,0,0,0,0,0,0,0,0,0,0,0,0,0,0,0,0],"sum_hessian":[5.0903135E3,3.6429128E3,1.4474009E3,3.2888574E3,3.540553E2,1.1069396E2,1.3367069E3,3.1572283E3,1.3162917E2,2.3398114E2,1.2007417E2,4.1306484E1,6.9387474E1,3.772275E2,9.5947943E2,3.0375344E3,1.19693886E2,1.26393684E2,5.235475E0,2.2815921E2,5.821925E0,3.288888E1,8.7185295E1,2.1378942E1,1.992754E1,1.1086724E1,5.830075E1,2.9602142E2,8.120608E1,2.4337091E1,9.3514233E2,3.0139087E3,2.362567E1,1.0192345E2,1.777044E1,1.00643486E2,2.57502E1,2.0896304E2,1.9196169E1,2.6373718E1,6.5151653E0,5.3853554E1,3.3331738E1,1.2069101E1,9.309841E0,8.235666E0,1.1691874E1,6.0391464E0,5.047578E0,1.1701377E1,4.6599377E1,2.2317357E2,7.284785E1,9.899218E0,1.4437873E1,4.575145E2,4.7762787E2],"tree_param":{"num_deleted":"0","num_feature":"10","num_nodes":"57","size_leaf_vector":"1"}},{"base_weights":[-2.5048533E-1,-1.0500776E0,1.392359E0,-1.0910219E0,-5.131916E-1,4.7568044E-1,1.5437411E0,-1.1038995E0,-7.724852E-1,-9.030208E-1,2.9146963E-1,-5.272461E-1,8.7541133E-1,1.2695001E0,1.6472642E0,-1.1098242E0,-9.464186E-1,-1.1066226E-1,2.7742016E-1,-1.0075663E0,4.3194327E-1,-8.887653E-1,7.2331554E-1,-8.021372E-1,4.275106E-1,6.5258276E-1,1.858683E-1,1.079094E0,1.7489675E0,1.493976E0,1.688578E-1,-1.1119224E-1,-8.238111E-2,-1.1064688E-1,-6.289322E-3,-1.0530175E-1,1.231727E-1,-1.0807562E-1,4.6132818E-2,-1.25552E-2,1.0026717E-1,-3.8192205E-3,-1.1869662E-1,3.0504366E-2,1.3465239E-1,-4.2497218E-2,-1.13537885E-1,-3.178785E-2,1.1737174E-1,4.0465653E-2,1.3748257E-1,5.938508E-2,1.3169177E-1,1.1780806E-1,1.8226993E-1,1.2333294E-1,1.633846E-1],"categories":[],"categories_nodes":[],"categories_segments":[],"categories_sizes":[],"default_left":[0,0,0,0,0,0,0,0,0,0,0,0,0,0,0,0,0,0,0,0,0,0,0,0,0,0,0,0,0,0,0,0,0,0,0,0,0,0,0,0,0,0,0,0,0,0,0,0,0,0,0,0,0,0,0,0,0],"id":6,"left_children":[1,3,5,7,9,11,13,15,17,19,21,23,25,27,29,31,33,-1,35,37,39,41,43,45,47,49,-1,51,53,55,-1,-1,-1,-1,-1,-1,-1,-1,-1,-1,-1,-1,-1,-1,-1,-1,-1,-1,-1,-1,-1,-1,-1,-1,-1,-1,-1],"loss_changes":[6.348184E3,7.089136E1,2.1881885E2,1.1531738E1,7.310162E1,9.094176E1,3.6447266E1,1.6552734E0,4.2631065E1,2.2300545E1,3.96526E1,1.7387253E1,3.422666E1,3.2471985E1,3.6967773E0,7.573242E-1,1.575695E1,0E0,3.929248E1,1.6150696E1,3.968874E0,5.2688904E0,1.4339565E1,5.898857E0,8.811049E0,2.3332043E1,0E0,3.060672E1,2.2878723E0,5.9023438E0,0E0,0E0,0E0,0E0,0E0,0E0,0E0,0E0,0E0,0E0,0E0,0E0,0E0,0E0,0E0,0E0,0E0,0E0,0E0,0E0,0E0,0E0,0E0,0E0,0E0,0E0,0E0],"parents":[2147483647,0,0,1,1,2,2,3,3,4,4,5,5,6,6,7,7,8,8,9,9,10,10,11,11,12,12,13,13,14,14,15,15,16,16,18,18,19,19,20,20,21,21,22,22,23,23,24,24,25,25,27,27,28,28,29,29],"right_children":[2,4,6,8,10,12,14,16,18,20,22,24,26,28,30,32,34,-1,36,38,40,42,44,46,48,50,-1,52,54,56,-1,-1,-1,-1,-1,-1,-1,-1,-1,-1,-1,-1,-1,-1,-1,-1,-1,-1,-1,-1,-1,-1,-1,-1,-1,-1,-1],"split_conditions":[4E0,3E0,6E0,1.4538538E0,1.2585045E0,1.0695008E0,9E0,1.19965195E2,2E0,1E0,3.9344406E1,8.0528366E1,1E0,4.5E1,2.6E1,6E0,2.8E1,-1.1066226E-1,3E0,1E0,1.0305569E0,1.3090253E0,1E0,8.894689E-1,5E0,4E0,1.858683E-1,6.758061E1,4.9208794E1,1.1E1,1.688578E-1,-1.1119224E-1,-8.238111E-2,-1.1064688E-1,-6.289322E-3,-1.0530175E-1,1.231727E-1,-1.0807562E-1,4.6132818E-2,-1.25552E-2,1.0026717E-1,-3.8192205E-3,-1.1869662E-1,3.0504366E-2,1.3465239E-1,-4.2497218E-2,-1.13537885E-1,-3.178785E-2,1.1737174E-1,4.0465653E-2,1.3748257E-1,5.938508E-2,1.3169177E-1,1.1780806E-1,1.8226993E-1,1.2333294E-1,1.633846E-1],"split_indices":[2,2,2,0,0,0,2,1,2,6,1,1,5,3,3,9,3,0,9,5,0,0,4,0,2,9,0,1,1,2,0,0,0,0,0,0,0,0,0,0,0,0,0,0,0,0,0,0,0,0,0,0,0,0,0,0,0],"split_type":[0,0,0,0,0,0,0,0,0,0,0,0,0,0,0,0,0,0,0,0,0,0,0,0,0,0,0,0,0,0,0,0,0,0,0,0,0,0,0,0,0,0,0,0,0,0,0,0,0,0,0,0,0,0,0,0,0],"sum_hessian":[4.8305283E3,3.2493777E3,1.5811506E3,3.0181719E3,2.3120583E2,2.2469226E2,1.3564584E3,2.8985261E3,1.1964582E2,1.5566806E2,7.553777E1,6.394214E1,1.6075012E2,3.7536105E2,9.810973E2,2.7876052E3,1.109209E2,9.0719795E1,2.8926025E1,1.4458997E2,1.1078086E1,1.9951702E1,5.5586067E1,4.977182E1,1.41703205E1,1.3240765E2,2.8342474E1,2.7099442E2,1.04366646E2,2.1617441E2,7.649229E2,2.7644375E3,2.3167715E1,9.369565E1,1.7225252E1,1.2038805E1,1.688722E1,1.3797919E2,6.6107817E0,5.9985933E0,5.079492E0,5.471927E0,1.44797735E1,3.4153267E1,2.14328E1,2.4414547E1,2.5357273E1,7.3762054E0,6.794115E0,9.97325E1,3.2675156E1,9.028283E1,1.807116E2,1.3879444E1,9.04872E1,7.892186E1,1.3725256E2],"tree_param":{"num_deleted":"0","num_feature":"10","num_nodes":"57","size_leaf_vector":"1"}},{"base_weights":[-2.736895E-1,-1.0006125E0,1.3422178E0,-1.0789652E0,-3.4158534E-1,8.7577087E-1,1.4896115E0,-1.0928036E0,-7.461206E-1,-9.335203E-1,1.7300504E-1,7.5354975E-1,1.9036429E-1,1.3647488E0,1.5780969E-1,-1.0949537E0,-8.045913E-1,-8.8455343E-1,1.8075585E-1,-9.997377E-1,2.430774E-2,-1.4496576E-2,1.7512114E0,1.456009E-1,1.0064211E0,1.0063733E0,1.4523504E0,-1.09917596E-1,-9.787779E-2,-1.0567508E-1,1.0114812E-2,-1.09269395E-1,-1.4635681E-2,-1.0355681E-1,-1.6968928E-2,-1.4892484E-2,1.4432633E-1,6.563707E-2,2.145417E-1,-5.292129E-2,8.381934E-2,8.487708E-2,1.756352E-1,-9.711301E-2,1.1885067E-1,1.0711362E-1,1.5097326E-1],"categories":[],"categories_nodes":[],"categories_segments":[],"categories_sizes":[],"default_left":[0,0,0,0,0,0,0,0,0,0,0,0,0,0,0,0,0,0,0,0,0,0,0,0,0,0,0,0,0,0,0,0,0,0,0,0,0,0,0,0,0,0,0,0,0,0,0],"id":7,"left_children":[1,3,5,7,9,11,13,15,17,19,21,23,-1,25,-1,27,29,31,-1,33,-1,35,37,39,41,43,45,-1,-1,-1,-1,-1,-1,-1,-1,-1,-1,-1,-1,-1,-1,-1,-1,-1,-1,-1,-1],"loss_changes":[5.2686553E3,1.5936523E2,9.43811E1,1.1916992E1,1.0073129E2,4.0853424E1,9.515137E0,7.624512E-1,4.1719822E1,1.2217972E1,5.2540325E1,4.635701E1,0E0,1.2522461E1,0E0,2.1386719E-1,5.452879E0,1.6484467E1,0E0,4.15773E0,0E0,3.1493195E1,6.7287827E0,4.252063E1,2.3746735E1,3.383988E1,6.163269E0,0E0,0E0,0E0,0E0,0E0,0E0,0E0,0E0,0E0,0E0,0E0,0E0,0E0,0E0,0E0,0E0,0E0,0E0,0E0,0E0],"parents":[2147483647,0,0,1,1,2,2,3,3,4,4,5,5,6,6,7,7,8,8,9,9,10,10,11,11,13,13,15,15,16,16,17,17,19,19,21,21,22,22,23,23,24,24,25,25,26,26],"right_children":[2,4,6,8,10,12,14,16,18,20,22,24,-1,26,-1,28,30,32,-1,34,-1,36,38,40,42,44,46,-1,-1,-1,-1,-1,-1,-1,-1,-1,-1,-1,-1,-1,-1,-1,-1,-1,-1,-1,-1],"split_conditions":[5E0,3E0,8E0,1.4538538E0,1.1139511E0,1E0,1.1E1,6E0,3.8E1,5E0,1E0,5.801627E1,1.9036429E-1,5.879527E1,1.5780969E-1,1.19965195E2,6.00221E1,2E0,1.8075585E-1,1.347729E2,2.430774E-2,1E0,3E0,1.3994048E0,5.1E1,2E0,1.9E1,-1.09917596E-1,-9.787779E-2,-1.0567508E-1,1.0114812E-2,-1.09269395E-1,-1.4635681E-2,-1.0355681E-1,-1.6968928E-2,-1.4892484E-2,1.4432633E-1,6.563707E-2,2.145417E-1,-5.292129E-2,8.381934E-2,8.487708E-2,1.756352E-1,-9.711301E-2,1.1885067E-1,1.0711362E-1,1.5097326E-1],"split_indices":[2,2,2,0,0,7,2,9,3,9,5,1,0,1,0,1,1,2,0,1,0,6,9,0,3,9,3,0,0,0,0,0,0,0,0,0,0,0,0,0,0,0,0,0,0,0,0],"split_type":[0,0,0,0,0,0,0,0,0,0,0,0,0,0,0,0,0,0,0,0,0,0,0,0,0,0,0,0,0,0,0,0,0,0,0,0,0,0,0,0,0,0,0,0,0,0,0],"sum_hessian":[4.483192E3,3.0924297E3,1.3907622E3,2.7632642E3,3.2916565E2,3.356128E2,1.0551494E3,2.650772E3,1.1249207E2,1.527001E2,1.7646553E2,3.0149594E2,3.411685E1,4.4443134E2,6.1071814E2,2.6283647E3,2.2407219E1,1.0732755E2,5.1645236E0,1.4470653E2,7.993576E0,1.5861215E2,1.7853384E1,8.902923E1,2.1246672E2,8.975084E1,3.5468048E2,2.5280264E3,1.0033844E2,1.7397106E1,5.0101123E0,8.334697E1,2.398058E1,1.3848116E2,6.2253823E0,1.4604257E2,1.2569571E1,5.431987E0,1.2421397E1,4.5212864E1,4.3816364E1,1.7732195E2,3.5144775E1,7.203817E0,8.254702E1,4.8976395E1,3.057041E2],"tree_param":{"num_deleted":"0","num_feature":"10","num_nodes":"47","size_leaf_vector":"1"}},{"base_weights":[-2.4765353E-1,-1.0258988E0,1.1724951E0,-1.0707155E0,-4.9809033E-1,3.1493154E-1,1.319113E0,-1.0808512E0,-8.2996976E-1,-9.1332453E-1,3.373486E-1,-7.244709E-1,6.534873E-1,1.09297E0,1.4637874E0,-1.087969E0,-8.9766765E-1,-9.7687054E-1,7.328705E-2,-1.0648642E0,-2.0623994E-1,-8.4352183E-1,7.2000563E-1,-1.1140909E-1,-3.223063E-2,4.5536613E-1,1.5520983E0,3.1108844E-1,1.1988412E0,1.0575631E0,1.476016E0,-1.0904814E-1,-7.5744875E-2,-1.08245686E-1,3.3020217E-3,-1.09909E-1,-3.614947E-2,-1.1130712E-1,1.6655294E-3,-4.9102616E-2,7.798084E-2,-6.0714036E-3,-1.1437646E-1,5.1015377E-2,2.0412086E-1,-1.01851426E-1,3.6700755E-2,-7.112409E-2,6.6772655E-2,9.9730395E-2,1.7833138E-1,-5.814701E-3,1.3879772E-1,1.04851484E-1,1.52531E-1,3.7200473E-2,1.3888851E-1,1.3420397E-1,1.5037982E-1],"categories":[],"categories_nodes":[],"categories_segments":[],"categories_sizes":[],"default_left":[0,0,0,0,0,0,0,0,0,0,0,0,0,0,0,0,0,0,0,0,0,0,0,0,0,0,0,0,0,0,0,0,0,0,0,0,0,0,0,0,0,0,0,0,0,0,0,0,0,0,0,0,0,0,0,0,0,0,0],"id":8,"left_children":[1,3,5,7,9,11,13,15,17,19,21,23,25,27,29,31,33,35,-1,37,39,41,43,-1,45,47,49,51,53,55,57,-1,-1,-1,-1,-1,-1,-1,-1,-1,-1,-1,-1,-1,-1,-1,-1,-1,-1,-1,-1,-1,-1,-1,-1,-1,-1,-1,-1],"loss_changes":[4.698083E3,6.441797E1,1.8880078E2,5.2768555E0,7.550714E1,7.8255974E1,4.0436523E1,2.1845703E0,2.5171677E1,1.5325043E1,3.345845E1,1.4739397E1,2.9070557E1,4.1449524E1,2.3167725E0,1.1081543E0,1.6614723E1,6.958229E0,0E0,6.2346954E0,7.9210844E0,4.2206554E0,1.4331846E1,0E0,8.547887E0,3.4776505E1,2.0440369E0,2.4575706E1,2.022168E1,5.466091E0,7.930908E-1,0E0,0E0,0E0,0E0,0E0,0E0,0E0,0E0,0E0,0E0,0E0,0E0,0E0,0E0,0E0,0E0,0E0,0E0,0E0,0E0,0E0,0E0,0E0,0E0,0E0,0E0,0E0,0E0],"parents":[2147483647,0,0,1,1,2,2,3,3,4,4,5,5,6,6,7,7,8,8,9,9,10,10,11,11,12,12,13,13,14,14,15,15,16,16,17,17,19,19,20,20,21,21,22,22,24,24,25,25,26,26,27,27,28,28,29,29,30,30],"right_children":[2,4,6,8,10,12,14,16,18,20,22,24,26,28,30,32,34,36,-1,38,40,42,44,-1,46,48,50,52,54,56,58,-1,-1,-1,-1,-1,-1,-1,-1,-1,-1,-1,-1,-1,-1,-1,-1,-1,-1,-1,-1,-1,-1,-1,-1,-1,-1,-1,-1],"split_conditions":[4E0,3E0,6E0,1.4538538E0,1.2824758E0,1.0695008E0,1E1,1.19965195E2,3.4E1,1E0,3.9344406E1,6.803569E1,1E0,2E0,3.233956E1,6E0,2.8E1,1E0,7.328705E-2,4.4E1,7.886746E1,1.9742096E1,1E0,-1.1140909E-1,8.400755E-1,2E0,1.4064912E0,1.8601928E0,1E0,1.2E1,2.4E1,-1.0904814E-1,-7.5744875E-2,-1.08245686E-1,3.3020217E-3,-1.09909E-1,-3.614947E-2,-1.1130712E-1,1.6655294E-3,-4.9102616E-2,7.798084E-2,-6.0714036E-3,-1.1437646E-1,5.1015377E-2,2.0412086E-1,-1.01851426E-1,3.6700755E-2,-7.112409E-2,6.6772655E-2,9.9730395E-2,1.7833138E-1,-5.814701E-3,1.3879772E-1,1.04851484E-1,1.52531E-1,3.7200473E-2,1.3888851E-1,1.3420397E-1,1.5037982E-1],"split_indices":[2,2,2,0,0,0,2,1,3,4,1,1,5,9,1,9,3,4,0,3,1,1,6,0,0,9,0,0,6,2,3,0,0,0,0,0,0,0,0,0,0,0,0,0,0,0,0,0,0,0,0,0,0,0,0,0,0,0,0],"split_type":[0,0,0,0,0,0,0,0,0,0,0,0,0,0,0,0,0,0,0,0,0,0,0,0,0,0,0,0,0,0,0,0,0,0,0,0,0,0,0,0,0,0,0,0,0,0,0,0,0,0,0,0,0,0,0,0,0,0,0],"sum_hessian":[4.248709E3,2.7448186E3,1.5038903E3,2.5290461E3,2.1577258E2,2.2003862E2,1.2838516E3,2.4235232E3,1.0552277E2,1.4407196E2,7.170062E1,5.3782055E1,1.6625656E2,5.042323E2,7.796193E2,2.3281233E3,9.5400055E1,9.6798996E1,8.723782E0,1.1822783E2,2.5844126E1,1.7253218E1,5.4447403E1,3.4023113E1,1.9758942E1,1.3745741E2,2.879916E1,6.0603195E1,4.4362912E2,2.5339476E1,7.5427985E2,2.3082773E3,1.9845804E1,7.946009E1,1.5939968E1,8.0103615E1,1.6695377E1,1.1315495E2,5.0728784E0,2.0442142E1,5.4019837E0,5.116207E0,1.2137011E1,4.8180786E1,6.2666163E0,5.2465777E0,1.4512364E1,2.0806604E1,1.166508E2,1.0034645E1,1.8764515E1,4.583399E1,1.4769206E1,3.0664325E2,1.3698586E2,8.94781E0,1.6391665E1,1.3801701E2,6.162628E2],"tree_param":{"num_deleted":"0","num_feature":"10","num_nodes":"59","size_leaf_vector":"1"}},{"base_weights":[-2.4095076E-1,-1.0102954E0,1.10816E0,-1.0563148E0,-4.8311833E-1,5.503217E-1,1.2738848E0,-1.0638082E0,-6.897285E-1,-9.173867E-1,2.6785824E-1,-3.0555308E-1,8.193858E-1,1.0756234E0,1.3848975E0,-1.0660845E0,-4.8496583E-3,-1.0585123E-1,7.380582E-2,-1.0012939E0,1.6641108E-2,-6.106785E-2,1.3651462E0,-6.276712E-1,6.479119E-1,5.8962566E-1,1.3342177E0,9.2785543E-1,1.4230064E-1,1.2335304E0,1.4225261E-1,-1.0751529E-1,-9.224187E-2,-1.0951654E-1,-5.2846517E-2,1.7578353E-1,-2.7325952E-2,1.6217929E-1,8.523242E-2,-7.675633E-2,7.353259E-2,-1.2396837E-2,1.00255385E-1,2.7665062E-2,1.2679842E-1,2.1855907E-1,1.23374455E-1,7.566568E-2,1.4253353E-1,7.834785E-2,1.33043E-1],"categories":[],"categories_nodes":[],"categories_segments":[],"categories_sizes":[],"default_left":[0,0,0,0,0,0,0,0,0,0,0,0,0,0,0,0,0,0,0,0,0,0,0,0,0,0,0,0,0,0,0,0,0,0,0,0,0,0,0,0,0,0,0,0,0,0,0,0,0,0,0],"id":9,"left_children":[1,3,5,7,9,11,13,15,17,19,21,23,25,27,29,31,-1,-1,-1,33,-1,35,37,39,41,43,45,47,-1,49,-1,-1,-1,-1,-1,-1,-1,-1,-1,-1,-1,-1,-1,-1,-1,-1,-1,-1,-1,-1,-1],"loss_changes":[4.096073E3,6.045703E1,1.318009E2,5.613037E0,6.664621E1,7.625263E1,2.2813843E1,5.176758E0,2.66478E1,1.191864E1,2.728772E1,2.487455E1,2.8947174E1,1.9255463E1,2.2573242E0,1.9489746E0,0E0,0E0,0E0,4.7513123E0,0E0,2.3231487E1,9.112358E-1,1.201556E1,5.76608E0,3.6929718E1,3.870758E0,2.3116745E1,0E0,5.4018555E0,0E0,0E0,0E0,0E0,0E0,0E0,0E0,0E0,0E0,0E0,0E0,0E0,0E0,0E0,0E0,0E0,0E0,0E0,0E0,0E0,0E0],"parents":[2147483647,0,0,1,1,2,2,3,3,4,4,5,5,6,6,7,7,8,8,9,9,10,10,11,11,12,12,13,13,14,14,15,15,19,19,21,21,22,22,23,23,24,24,25,25,26,26,27,27,29,29],"right_children":[2,4,6,8,10,12,14,16,18,20,22,24,26,28,30,32,-1,-1,-1,34,-1,36,38,40,42,44,46,48,-1,50,-1,-1,-1,-1,-1,-1,-1,-1,-1,-1,-1,-1,-1,-1,-1,-1,-1,-1,-1,-1,-1],"split_conditions":[4E0,3E0,7E0,1E0,1.2662183E0,1.1089635E0,1E1,1.7540164E0,2E0,1E0,4E0,1E0,4E0,1E0,2.6E1,1.3994048E0,-4.8496583E-3,-1.0585123E-1,7.380582E-2,1E0,1.6641108E-2,1.1E1,2.6E1,4.6E1,5E0,3.8E1,1.1351808E0,1.8601928E0,1.4230064E-1,1.1E1,1.4225261E-1,-1.0751529E-1,-9.224187E-2,-1.0951654E-1,-5.2846517E-2,1.7578353E-1,-2.7325952E-2,1.6217929E-1,8.523242E-2,-7.675633E-2,7.353259E-2,-1.2396837E-2,1.00255385E-1,2.7665062E-2,1.2679842E-1,2.1855907E-1,1.23374455E-1,7.566568E-2,1.4253353E-1,7.834785E-2,1.33043E-1],"split_indices":[2,2,2,5,0,0,2,0,2,6,9,4,9,6,3,0,0,0,0,4,0,3,3,3,2,3,0,0,0,2,0,0,0,0,0,0,0,0,0,0,0,0,0,0,0,0,0,0,0,0,0],"split_type":[0,0,0,0,0,0,0,0,0,0,0,0,0,0,0,0,0,0,0,0,0,0,0,0,0,0,0,0,0,0,0,0,0,0,0,0,0,0,0,0,0,0,0,0,0,0,0,0,0,0,0],"sum_hessian":[3.944304E3,2.5120386E3,1.4322653E3,2.3094346E3,2.0260413E2,3.290354E2,1.1032299E3,2.2613093E3,4.812511E1,1.2823048E2,7.4373634E1,7.866662E1,2.5036879E2,3.9983673E2,7.033931E2,2.2562012E3,5.1082625E0,3.8451965E1,9.673145E0,1.1908695E2,9.143532E0,5.7947483E1,1.6426153E1,5.9056644E1,1.960997E1,1.7459532E2,7.577346E1,2.8308884E2,1.1674788E2,1.4676945E2,5.5662366E2,2.116143E3,1.4005807E2,9.826252E1,2.0824436E1,5.2928743E0,5.2654606E1,9.506196E0,6.919957E0,5.395572E1,5.100924E0,6.3782063E0,1.3231765E1,1.20437E2,5.4158325E1,5.8077507E0,6.996571E1,2.1248647E2,7.060238E1,2.761176E1,1.1915769E2],"tree_param":{"num_deleted":"0","num_feature":"10","num_nodes":"51","size_leaf_vector":"1"}},{"base_weights":[-2.1391474E-1,-9.8552644E-1,1.0408276E0,-1.0395571E0,-4.0204197E-1,5.999426E-1,1.2498842E0,-1.0683933E0,-8.7900287E-1,-5.39244E-1,8.4303546E-1,4.1210532E-1,1.3588601E0,1.1136138E0,1.3454944E-1,-1.0717275E-1,-6.2839526E-1,-9.3025297E-1,6.960085E-2,-7.1511656E-1,8.0394596E-2,-1.0201676E-1,1.5493273E0,1.566223E-1,1.0315348E0,5.1413715E-2,1.4116784E0,5.894389E-1,1.187978E0,-9.87698E-2,1.087802E-2,-9.617935E-2,4.4298984E-2,-8.201464E-2,7.918862E-2,-9.8237224E-2,3.1799253E-2,2.163116E-1,8.177604E-2,-6.095821E-4,1.06289305E-1,-6.4433955E-2,1.1517902E-1,8.410569E-2,1.4496128E-1,-9.6909754E-2,8.60716E-2,9.573927E-2,1.2853971E-1],"categories":[],"categories_nodes":[],"categories_segments":[],"categories_sizes":[],"default_left":[0,0,0,0,0,0,0,0,0,0,0,0,0,0,0,0,0,0,0,0,0,0,0,0,0,0,0,0,0,0,0,0,0,0,0,0,0,0,0,0,0,0,0,0,0,0,0,0,0],"id":10,"left_children":[1,3,5,7,9,11,13,15,17,19,21,23,25,27,-1,-1,29,31,-1,33,35,-1,37,39,41,-1,43,45,47,-1,-1,-1,-1,-1,-1,-1,-1,-1,-1,-1,-1,-1,-1,-1,-1,-1,-1,-1,-1],"loss_changes":[3.6044773E3,7.225464E1,1.2992346E2,8.825928E0,3.4107124E1,6.4721725E1,1.1019775E1,1.9428711E0,2.7024887E1,1.9461353E1,2.7825722E1,5.8158882E1,3.3085327E0,1.4968201E1,0E0,0E0,4.3002176E0,1.4152252E1,0E0,2.261728E1,1.0479325E1,0E0,4.903034E0,3.8656178E1,2.2393608E1,0E0,6.104889E-1,2.2788109E1,6.654907E0,0E0,0E0,0E0,0E0,0E0,0E0,0E0,0E0,0E0,0E0,0E0,0E0,0E0,0E0,0E0,0E0,0E0,0E0,0E0,0E0],"parents":[2147483647,0,0,1,1,2,2,3,3,4,4,5,5,6,6,7,7,8,8,9,9,10,10,11,11,12,12,13,13,16,16,17,17,19,19,20,20,22,22,23,23,24,24,26,26,27,27,28,28],"right_children":[2,4,6,8,10,12,14,16,18,20,22,24,26,28,-1,-1,30,32,-1,34,36,-1,38,40,42,-1,44,46,48,-1,-1,-1,-1,-1,-1,-1,-1,-1,-1,-1,-1,-1,-1,-1,-1,-1,-1,-1,-1],"split_conditions":[4E0,3E0,8E0,2E0,1E0,1E0,1.1E1,6E0,1E0,1E0,2.3E1,4E0,1.4E1,2E0,1.3454944E-1,-1.0717275E-1,1.9E1,4.3E1,6.960085E-2,5E0,2.8482685E1,-1.0201676E-1,2.9E1,1E0,2.9511087E1,5.1413715E-2,3.625403E1,5.7314156E1,2.8E1,-9.87698E-2,1.087802E-2,-9.617935E-2,4.4298984E-2,-8.201464E-2,7.918862E-2,-9.8237224E-2,3.1799253E-2,2.163116E-1,8.177604E-2,-6.095821E-4,1.06289305E-1,-6.4433955E-2,1.1517902E-1,8.410569E-2,1.4496128E-1,-9.6909754E-2,8.60716E-2,9.573927E-2,1.2853971E-1],"split_indices":[2,2,2,2,6,5,2,9,5,4,3,9,3,9,0,0,3,3,0,9,1,0,3,6,1,0,1,1,3,0,0,0,0,0,0,0,0,0,0,0,0,0,0,0,0,0,0,0,0],"split_type":[0,0,0,0,0,0,0,0,0,0,0,0,0,0,0,0,0,0,0,0,0,0,0,0,0,0,0,0,0,0,0,0,0,0,0,0,0,0,0,0,0,0,0,0,0,0,0,0,0],"sum_hessian":[3.7209053E3,2.3041611E3,1.4167439E3,2.1081636E3,1.9599754E2,4.569469E2,9.5979706E2,1.782385E3,3.2577872E2,1.770539E2,1.8943653E1,3.6752496E2,8.942193E1,4.0096298E2,5.5883405E2,1.7675553E3,1.4829613E1,3.1590857E2,9.870143E0,1.3779057E2,3.9263313E1,5.0849957E0,1.3858658E1,2.610911E2,1.0643389E2,5.893954E0,8.352798E1,5.0925827E1,3.5003714E2,9.741648E0,5.087965E0,3.091086E2,6.7999697E0,1.2923909E2,8.551483E0,6.6013083E0,3.2662006E1,6.4718847E0,7.386773E0,2.221907E2,3.8900383E1,6.834228E0,9.959966E1,6.651102E0,7.687688E1,7.1685934E0,4.3757233E1,1.0717867E2,2.4285846E2],"tree_param":{"num_deleted":"0","num_feature":"10","num_nodes":"49","size_leaf_vector":"1"}},{"base_weights":[-2.277554E-1,-6.483227E-1,8.584328E-1,-7.6332325E-1,8.882452E-1,-4.7636554E-1,9.706272E-1,-8.663969E-1,2.4622926E-2,-4.684281E-2,1.1031921E0,-7.543058E-1,1.1197962E0,5.260513E-1,1.1943513E0,-9.080728E-1,1.2310904E-1,-3.1721178E-1,9.6284777E-1,-5.3726035E-1,1.2355938E-1,8.914991E-1,1.3626644E-1,-9.9111605E-1,9.415393E-2,7.2093196E-2,1.3730997E-1,3.7323672E-2,8.807292E-1,1.0129747E0,1.3144169E0,-9.2043266E-2,5.5998165E-2,-3.412367E-2,7.970279E-2,-5.4338258E-2,1.0487058E-1,-3.619109E-2,1.2738325E-1,-8.9650296E-2,-1.6101189E-3,6.1433006E-2,1.3130362E-1,-3.8994213E-3,-1.1494254E-1,-3.5524312E-2,7.722109E-2,7.0318714E-2,1.3731669E-1,5.816696E-2,1.2605907E-1,1.3350348E-1,7.8845575E-2],"categories":[],"categories_nodes":[],"categories_segments":[],"categories_sizes":[],"default_left":[0,0,0,0,0,0,0,0,0,0,0,0,0,0,0,0,0,0,0,0,0,0,0,0,0,0,0,0,0,0,0,0,0,0,0,0,0,0,0,0,0,0,0,0,0,0,0,0,0,0,0,0,0],"id":11,"left_children":[1,3,5,7,9,11,13,15,17,19,21,23,25,27,29,31,33,35,37,39,-1,41,-1,43,-1,-1,-1,45,47,49,51,-1,-1,-1,-1,-1,-1,-1,-1,-1,-1,-1,-1,-1,-1,-1,-1,-1,-1,-1,-1,-1,-1],"loss_changes":[1.5821471E3,4.4180774E2,1.4524829E2,1.8869678E2,3.5082855E1,3.439845E1,8.8109314E1,8.483252E1,8.680673E1,2.1754847E1,6.571533E0,2.7042374E1,1.840334E-1,5.2048485E1,1.1576172E1,3.628784E1,2.6530287E1,6.1873535E1,3.02361E1,4.657732E0,0E0,8.65213E0,0E0,8.627399E0,0E0,0E0,0E0,3.70269E1,1.4252289E1,2.494548E1,2.7783813E0,0E0,0E0,0E0,0E0,0E0,0E0,0E0,0E0,0E0,0E0,0E0,0E0,0E0,0E0,0E0,0E0,0E0,0E0,0E0,0E0,0E0,0E0],"parents":[2147483647,0,0,1,1,2,2,3,3,4,4,5,5,6,6,7,7,8,8,9,9,10,10,11,11,12,12,13,13,14,14,15,15,16,16,17,17,18,18,19,19,21,21,23,23,27,27,28,28,29,29,30,30],"right_children":[2,4,6,8,10,12,14,16,18,20,22,24,26,28,30,32,34,36,38,40,-1,42,-1,44,-1,-1,-1,46,48,50,52,-1,-1,-1,-1,-1,-1,-1,-1,-1,-1,-1,-1,-1,-1,-1,-1,-1,-1,-1,-1,-1,-1],"split_conditions":[1.4064912E0,4.2E1,3.2993813E1,1.0190089E2,5.0054478E1,5E0,2.7E1,1E0,4E0,1E0,5.1E1,4.2E1,6E0,1.5805769E0,3E0,1E0,2.7E1,1E0,1.7E1,4.8E1,1.2355938E-1,1E0,1.3626644E-1,1.4249691E0,9.415393E-2,7.2093196E-2,1.3730997E-1,1E0,2.052538E0,1.644195E0,2E0,-9.2043266E-2,5.5998165E-2,-3.412367E-2,7.970279E-2,-5.4338258E-2,1.0487058E-1,-3.619109E-2,1.2738325E-1,-8.9650296E-2,-1.6101189E-3,6.1433006E-2,1.3130362E-1,-3.8994213E-3,-1.1494254E-1,-3.5524312E-2,7.722109E-2,7.0318714E-2,1.3731669E-1,5.816696E-2,1.2605907E-1,1.3350348E-1,7.8845575E-2],"split_indices":[0,3,1,1,1,9,3,5,9,7,3,3,9,0,9,7,3,6,3,3,0,6,0,0,0,0,0,4,0,0,8,0,0,0,0,0,0,0,0,0,0,0,0,0,0,0,0,0,0,0,0,0,0],"split_type":[0,0,0,0,0,0,0,0,0,0,0,0,0,0,0,0,0,0,0,0,0,0,0,0,0,0,0,0,0,0,0,0,0,0,0,0,0,0,0,0,0,0,0,0,0,0,0,0,0,0,0,0,0],"sum_hessian":[3.4612104E3,2.495404E3,9.658064E2,2.3221147E3,1.732895E2,7.463332E1,8.911731E2,2.053403E3,2.6871155E2,3.2534782E1,1.4075471E2,6.401397E1,1.061935E1,2.994563E2,5.917168E2,1.9704923E3,8.291078E1,1.9743837E2,7.1273186E1,2.3955141E1,8.57964E0,7.99569E1,6.0797813E1,5.6534912E1,7.479056E0,5.6184235E0,5.000927E0,1.2639535E2,1.7306096E2,2.3944196E2,3.5227484E2,1.9544109E3,1.6081467E1,4.9380276E1,3.3530506E1,1.6990707E2,2.7531292E1,1.3519202E1,5.7753986E1,1.3754058E1,1.0201083E1,4.9721424E1,3.0235477E1,8.237619E0,4.8297295E1,8.272264E1,4.3672714E1,1.2898502E2,4.4075928E1,8.8550674E1,1.5089128E2,3.3750613E2,1.4768698E1],"tree_param":{"num_deleted":"0","num_feature":"10","num_nodes":"53","size_leaf_vector":"1"}},{"base_weights":[-2.14247E-1,-6.316201E-1,8.16925E-1,-7.896742E-1,4.3621755E-1,4.4275692E-1,1.1573441E0,-8.81106E-1,-6.587191E-2,-6.370613E-1,7.920273E-1,1.3239512E-1,1.0690883E0,-6.849463E-2,1.1776558E0,-8.9649E-1,6.8324137E-1,-5.448187E-1,5.417379E-1,-8.379189E-1,1.1195587E-1,4.73213E-1,1.1454878E0,-2.9815486E-1,5.637302E-1,-2.3326187E-3,1.1150612E0,9.907257E-1,1.2858233E0,-9.542116E-2,-6.3128054E-2,4.959319E-3,1.5004985E-1,-6.8295665E-2,4.4439286E-2,-2.4430087E-2,1.0882231E-1,-9.586165E-2,2.3094075E-2,2.9521842E-2,1.296729E-1,9.290962E-2,1.2975231E-1,-4.583043E-2,9.045088E-2,2.6162216E-2,9.6152164E-2,9.4384894E-2,1.3342829E-1,7.694048E-2,1.3166486E-1,1.3087982E-1,7.583292E-2],"categories":[],"categories_nodes":[],"categories_segments":[],"categories_sizes":[],"default_left":[0,0,0,0,0,0,0,0,0,0,0,0,0,0,0,0,0,0,0,0,0,0,0,0,0,0,0,0,0,0,0,0,0,0,0,0,0,0,0,0,0,0,0,0,0,0,0,0,0,0,0,0,0],"id":12,"left_children":[1,3,5,7,9,11,13,15,17,19,21,23,25,-1,27,29,31,33,35,37,-1,39,41,43,45,-1,47,49,51,-1,-1,-1,-1,-1,-1,-1,-1,-1,-1,-1,-1,-1,-1,-1,-1,-1,-1,-1,-1,-1,-1,-1,-1],"loss_changes":[1.4060715E3,3.9281567E2,1.1940076E2,1.340155E2,1.1524407E2,8.735336E1,1.9229431E1,4.389856E1,6.673275E1,2.752776E1,2.4936325E1,5.627279E1,7.5086975E0,0E0,8.579651E0,2.6670166E1,9.290078E0,1.781686E1,4.3708656E1,9.019806E0,0E0,1.729167E1,2.2988281E0,2.9660824E1,1.7926495E1,0E0,4.107834E0,1.2186295E1,2.7079163E0,0E0,0E0,0E0,0E0,0E0,0E0,0E0,0E0,0E0,0E0,0E0,0E0,0E0,0E0,0E0,0E0,0E0,0E0,0E0,0E0,0E0,0E0,0E0,0E0],"parents":[2147483647,0,0,1,1,2,2,3,3,4,4,5,5,6,6,7,7,8,8,9,9,10,10,11,11,12,12,14,14,15,15,16,16,17,17,18,18,19,19,21,21,22,22,23,23,24,24,26,26,27,27,28,28],"right_children":[2,4,6,8,10,12,14,16,18,20,22,24,26,-1,28,30,32,34,36,38,-1,40,42,44,46,-1,48,50,52,-1,-1,-1,-1,-1,-1,-1,-1,-1,-1,-1,-1,-1,-1,-1,-1,-1,-1,-1,-1,-1,-1,-1,-1],"split_conditions":[1.4064912E0,3.5E1,3.2E1,1.0190089E2,4.7433693E1,1.7540164E0,2.6137135E1,1E0,2.3E1,1E0,4.5E1,6.3407005E1,3.279287E1,-6.849463E-2,3E0,1E0,1E0,1.9679965E2,3E0,4.9E1,1.1195587E-1,1E0,5.1E1,5E0,1E0,-2.3326187E-3,2.052538E0,1.8601928E0,2E0,-9.542116E-2,-6.3128054E-2,4.959319E-3,1.5004985E-1,-6.8295665E-2,4.4439286E-2,-2.4430087E-2,1.0882231E-1,-9.586165E-2,2.3094075E-2,2.9521842E-2,1.296729E-1,9.290962E-2,1.2975231E-1,-4.583043E-2,9.045088E-2,2.6162216E-2,9.6152164E-2,9.4384894E-2,1.3342829E-1,7.694048E-2,1.3166486E-1,1.3087982E-1,7.583292E-2],"split_indices":[0,3,3,1,1,0,1,7,3,7,3,1,1,0,9,4,5,1,9,3,0,5,3,9,4,0,0,0,8,0,0,0,0,0,0,0,0,0,0,0,0,0,0,0,0,0,0,0,0,0,0,0,0],"split_type":[0,0,0,0,0,0,0,0,0,0,0,0,0,0,0,0,0,0,0,0,0,0,0,0,0,0,0,0,0,0,0,0,0,0,0,0,0,0,0,0,0,0,0,0,0,0,0,0,0,0,0,0,0],"sum_hessian":[3.2648213E3,2.3243955E3,9.404257E2,2.0249384E3,2.9945715E2,4.4910135E2,4.9132437E2,1.7976405E3,2.272979E2,7.436104E1,2.2509612E2,3.0110712E2,1.4799422E2,5.001078E0,4.863233E2,1.7805571E3,1.7083286E1,1.27164314E2,1.0013358E2,6.720016E1,7.160886E0,1.1957798E2,1.05518135E2,1.5084523E2,1.502619E2,5.9965186E0,1.419977E2,1.8198477E2,3.0433853E2,1.460162E3,3.2039514E2,1.0220025E1,6.863261E0,1.11854095E2,1.5310218E1,4.1292843E1,5.8840736E1,6.047441E1,6.7257442E0,9.94429E1,2.0135084E1,4.647761E1,5.9040524E1,1.3366502E2,1.718021E1,8.634428E1,6.3917625E1,8.2708084E1,5.9289616E1,1.1038648E2,7.159829E1,2.902171E2,1.4121428E1],"tree_param":{"num_deleted":"0","num_feature":"10","num_nodes":"53","size_leaf_vector":"1"}},{"base_weights":[-1.9133388E-1,-9.5006394E-1,9.1252744E-1,-1.013682E0,-3.3940837E-1,3.8239756E-1,1.0823219E0,-1.0344489E0,-6.20172E-1,-7.864543E-1,2.0662458E-1,-1.1224271E-1,4.645932E-1,8.111751E-1,1.1744761E0,-1.0446969E0,-8.0324847E-1,-1.0543813E-1,3.5909966E-1,-9.948506E-1,2.9370243E-2,-2.39833E-1,6.7659056E-1,3.2162422E-1,1.1626111E0,6.559409E-1,1.2613136E-1,1.0432634E0,1.2350768E-1,-1.04854405E-1,-5.882996E-2,-1.04625545E-1,1.56892E-2,-9.9563025E-2,1.10781245E-1,-1.0660416E-1,-5.667495E-3,-9.1267064E-2,3.8624804E-2,2.0163042E-2,-8.636125E-2,-4.8185296E-2,9.381011E-2,-3.5906605E-2,4.5518216E-2,9.594939E-2,1.3456622E-1,3.960362E-2,1.1061796E-1,5.6169868E-2,1.1180251E-1],"categories":[],"categories_nodes":[],"categories_segments":[],"categories_sizes":[],"default_left":[0,0,0,0,0,0,0,0,0,0,0,0,0,0,0,0,0,0,0,0,0,0,0,0,0,0,0,0,0,0,0,0,0,0,0,0,0,0,0,0,0,0,0,0,0,0,0,0,0,0,0],"id":13,"left_children":[1,3,5,7,9,11,13,15,17,19,21,-1,23,25,27,29,31,-1,33,35,37,39,41,43,45,47,-1,49,-1,-1,-1,-1,-1,-1,-1,-1,-1,-1,-1,-1,-1,-1,-1,-1,-1,-1,-1,-1,-1,-1,-1],"loss_changes":[2.6285725E3,7.191016E1,1.14672485E2,1.3119263E1,4.3364723E1,3.9076836E1,2.3230957E1,2.9471436E0,3.73326E1,1.6609215E1,1.7045115E1,0E0,2.9192589E1,1.6553375E1,4.4375E0,2.0638428E0,1.69987E1,0E0,2.8938793E1,5.129616E0,7.349952E0,1.1740491E1,1.2406677E1,2.2644804E1,5.672989E-1,2.1448563E1,0E0,7.7946777E0,0E0,0E0,0E0,0E0,0E0,0E0,0E0,0E0,0E0,0E0,0E0,0E0,0E0,0E0,0E0,0E0,0E0,0E0,0E0,0E0,0E0,0E0,0E0],"parents":[2147483647,0,0,1,1,2,2,3,3,4,4,5,5,6,6,7,7,8,8,9,9,10,10,12,12,13,13,14,14,15,15,16,16,18,18,19,19,20,20,21,21,22,22,23,23,24,24,25,25,27,27],"right_children":[2,4,6,8,10,12,14,16,18,20,22,-1,24,26,28,30,32,-1,34,36,38,40,42,44,46,48,-1,50,-1,-1,-1,-1,-1,-1,-1,-1,-1,-1,-1,-1,-1,-1,-1,-1,-1,-1,-1,-1,-1,-1,-1],"split_conditions":[4E0,3E0,7E0,1.4538538E0,1.2171696E0,8.131062E-1,9E0,1.19965195E2,2E0,1E0,3E0,-1.1224271E-1,1E0,1E0,1.1E1,6E0,2.8E1,-1.0543813E-1,3E0,4.3E1,8.80828E-1,1E0,2.1E1,2E0,8.941032E1,4E0,1.2613136E-1,2E0,1.2350768E-1,-1.04854405E-1,-5.882996E-2,-1.04625545E-1,1.56892E-2,-9.9563025E-2,1.10781245E-1,-1.0660416E-1,-5.667495E-3,-9.1267064E-2,3.8624804E-2,2.0163042E-2,-8.636125E-2,-4.8185296E-2,9.381011E-2,-3.5906605E-2,4.5518216E-2,9.594939E-2,1.3456622E-1,3.960362E-2,1.1061796E-1,5.6169868E-2,1.1180251E-1],"split_indices":[2,2,2,0,0,0,2,1,2,4,9,0,5,5,2,9,3,0,9,3,0,8,3,9,1,9,0,9,0,0,0,0,0,0,0,0,0,0,0,0,0,0,0,0,0,0,0,0,0,0,0],"split_type":[0,0,0,0,0,0,0,0,0,0,0,0,0,0,0,0,0,0,0,0,0,0,0,0,0,0,0,0,0,0,0,0,0,0,0,0,0,0,0,0,0,0,0,0,0,0,0,0,0,0,0],"sum_hessian":[3.136436E3,1.8588855E3,1.2775504E3,1.6829011E3,1.7598442E2,3.1070956E2,9.668409E2,1.5969933E3,8.590783E1,9.6520905E1,7.946352E1,1.5436945E1,2.9527264E2,2.4773332E2,7.1910754E2,1.5258413E3,7.115192E1,5.9464542E1,2.6443285E1,7.670719E1,1.9813719E1,4.1002094E1,3.8461426E1,2.462883E2,4.8984333E1,1.8603477E2,6.169854E1,2.3294652E2,4.86161E2,1.5118005E3,1.4040829E1,5.6709354E1,1.4442561E1,9.295005E0,1.7148281E1,7.117033E1,5.5368643E0,5.0159283E0,1.479779E1,2.440609E1,1.6596003E1,6.9282002E0,3.1533228E1,4.0120743E1,2.0616756E2,2.6178154E1,2.280618E1,1.1913979E2,6.689498E1,3.2448444E1,2.0049808E2],"tree_param":{"num_deleted":"0","num_feature":"10","num_nodes":"51","size_leaf_vector":"1"}},{"base_weights":[-2.0597893E-1,-9.495246E-1,8.472809E-1,-1.0081078E0,-4.0243298E-1,4.9452385E-1,1.1299995E0,-1.0307516E0,-5.8557135E-1,-8.8538384E-1,1.3757229E-1,3.435341E-1,1.1475004E0,9.5445335E-1,1.1807945E0,-1.0421863E0,-7.7546257E-1,-1.0448201E-1,3.6718634E-1,-1.0021335E0,4.601724E-2,-6.2023927E-2,1.5575098E-1,1.8125272E-1,9.7988355E-1,3.5767686E-2,1.1892536E0,7.1721554E-1,1.1433412E0,7.282631E-2,1.1874147E-1,-1.0464447E-1,-5.6570273E-2,-1.0377933E-1,1.5334903E-2,-9.739532E-2,1.0194578E-1,-1.0581388E-1,-6.750771E-2,1.4691018E-1,-2.2082707E-2,1.5025303E-3,9.4627954E-2,1.8644035E-2,1.0668614E-1,6.146099E-2,1.246135E-1,2.7822027E-2,1.0995405E-1,8.220076E-2,1.18468724E-1],"categories":[],"categories_nodes":[],"categories_segments":[],"categories_sizes":[],"default_left":[0,0,0,0,0,0,0,0,0,0,0,0,0,0,0,0,0,0,0,0,0,0,0,0,0,0,0,0,0,0,0,0,0,0,0,0,0,0,0,0,0,0,0,0,0,0,0,0,0,0,0],"id":14,"left_children":[1,3,5,7,9,11,13,15,17,19,21,23,25,27,29,31,33,-1,35,37,-1,39,-1,41,43,-1,45,47,49,-1,-1,-1,-1,-1,-1,-1,-1,-1,-1,-1,-1,-1,-1,-1,-1,-1,-1,-1,-1,-1,-1],"loss_changes":[2.2689653E3,5.402173E1,1.1902118E2,1.4066406E1,4.3392963E1,5.2374252E1,4.8010254E0,3.4364014E0,3.552091E1,1.4241577E1,2.2542524E1,4.4860207E1,2.8753662E0,6.099365E0,6.6729736E-1,2.22583E0,1.6298992E1,0E0,2.4488367E1,7.699356E-1,0E0,1.744185E1,0E0,4.433362E1,5.901329E0,0E0,2.327362E0,1.1632301E1,1.4595795E-1,0E0,0E0,0E0,0E0,0E0,0E0,0E0,0E0,0E0,0E0,0E0,0E0,0E0,0E0,0E0,0E0,0E0,0E0,0E0,0E0,0E0,0E0],"parents":[2147483647,0,0,1,1,2,2,3,3,4,4,5,5,6,6,7,7,8,8,9,9,10,10,11,11,12,12,13,13,14,14,15,15,16,16,18,18,19,19,21,21,23,23,24,24,26,26,27,27,28,28],"right_children":[2,4,6,8,10,12,14,16,18,20,22,24,26,28,30,32,34,-1,36,38,-1,40,-1,42,44,-1,46,48,50,-1,-1,-1,-1,-1,-1,-1,-1,-1,-1,-1,-1,-1,-1,-1,-1,-1,-1,-1,-1,-1,-1],"split_conditions":[4E0,3E0,9E0,1.4538538E0,1.2171696E0,1E0,2.6E1,1.19965195E2,2E0,5E0,1E0,1E0,1.4E1,1E0,2.7442675E1,6E0,2.8E1,-1.0448201E-1,3E0,8.133376E1,4.601724E-2,1E1,1.5575098E-1,1.7540164E0,1.0855527E0,3.5767686E-2,2E0,1.0190089E2,2E0,7.282631E-2,1.1874147E-1,-1.0464447E-1,-5.6570273E-2,-1.0377933E-1,1.5334903E-2,-9.739532E-2,1.0194578E-1,-1.0581388E-1,-6.750771E-2,1.4691018E-1,-2.2082707E-2,1.5025303E-3,9.4627954E-2,1.8644035E-2,1.0668614E-1,6.146099E-2,1.246135E-1,2.7822027E-2,1.0995405E-1,8.220076E-2,1.18468724E-1],"split_indices":[2,2,2,0,0,5,3,1,2,9,6,6,3,4,1,9,3,0,9,1,0,3,0,0,0,0,9,1,9,0,0,0,0,0,0,0,0,0,0,0,0,0,0,0,0,0,0,0,0,0,0],"split_type":[0,0,0,0,0,0,0,0,0,0,0,0,0,0,0,0,0,0,0,0,0,0,0,0,0,0,0,0,0,0,0,0,0,0,0,0,0,0,0,0,0,0,0,0,0,0,0,0,0,0,0],"sum_hessian":[2.895214E3,1.6971879E3,1.1980262E3,1.5322683E3,1.6491959E2,5.3421643E2,6.638098E2,1.4529642E3,7.930406E1,8.672128E1,7.81983E1,4.3512686E2,9.9089584E1,1.5341214E2,5.1039767E2,1.3877239E3,6.524034E1,5.344557E1,2.5858492E1,8.003236E1,6.6889257E0,6.939937E1,8.798934E0,3.4773303E2,8.7393814E1,5.4555783E0,9.3634E1,7.012906E1,8.328309E1,8.959509E0,5.0143814E2,1.3742458E3,1.34780245E1,5.0780666E1,1.4459675E1,8.299882E0,1.7558609E1,6.642274E1,1.360962E1,5.7461224E0,6.3653244E1,2.865009E2,6.1232166E1,8.944295E0,7.844952E1,9.496894E0,8.413711E1,3.3449356E1,3.6679707E1,1.1874894E1,7.1408195E1],"tree_param":{"num_deleted":"0","num_feature":"10","num_nodes":"51","size_leaf_vector":"1"}},{"base_weights":[-1.9934213E-1,-8.817039E-1,8.7280613E-1,-1.0039283E0,-2.2575882E-1,5.7576346E-1,1.077753E0,-1.0236304E0,-6.4965546E-1,-8.6297995E-1,6.226426E-2,4.791559E-1,1.3901971E-1,9.161891E-1,1.1554798E0,-1.0322359E0,-6.504448E-1,-8.842925E-1,8.040817E-2,-9.8110265E-1,6.551489E-2,-5.429618E-2,1.0074126E0,5.44994E-1,-6.7398095E-1,5.5712783E-1,1.0616485E0,1.0549723E0,1.186763E-1,-1.0367401E-1,-5.493618E-2,-1.01309575E-1,6.7273945E-2,-1.06018834E-1,-1.836087E-2,-1.05576314E-1,-1.425076E-2,-1.638769E-2,6.749841E-2,1.8449739E-2,1.3670711E-1,3.636546E-2,9.669878E-2,-1.3103709E-1,5.964616E-3,-8.1383824E-2,7.076808E-2,9.330997E-2,1.193681E-1,8.79976E-2,1.15020595E-1],"categories":[],"categories_nodes":[],"categories_segments":[],"categories_sizes":[],"default_left":[0,0,0,0,0,0,0,0,0,0,0,0,0,0,0,0,0,0,0,0,0,0,0,0,0,0,0,0,0,0,0,0,0,0,0,0,0,0,0,0,0,0,0,0,0,0,0,0,0,0,0],"id":15,"left_children":[1,3,5,7,9,11,13,15,17,19,21,23,-1,25,27,29,31,33,-1,35,-1,37,39,41,43,45,47,49,-1,-1,-1,-1,-1,-1,-1,-1,-1,-1,-1,-1,-1,-1,-1,-1,-1,-1,-1,-1,-1,-1,-1],"loss_changes":[1.9886432E3,1.3293335E2,6.3743652E1,9.105103E0,4.8170006E1,3.346518E1,6.783386E0,3.581421E0,2.6798512E1,1.5289658E1,2.0048582E1,2.9924797E1,0E0,1.0254883E1,6.1645508E-2,2.2420654E0,1.6301865E1,7.980068E0,0E0,4.6192703E0,0E0,1.3097718E1,5.66E0,2.787407E1,1.0104151E1,1.3368399E1,1.3759308E0,7.907028E-1,0E0,0E0,0E0,0E0,0E0,0E0,0E0,0E0,0E0,0E0,0E0,0E0,0E0,0E0,0E0,0E0,0E0,0E0,0E0,0E0,0E0,0E0,0E0],"parents":[2147483647,0,0,1,1,2,2,3,3,4,4,5,5,6,6,7,7,8,8,9,9,10,10,11,11,13,13,14,14,15,15,16,16,17,17,19,19,21,21,22,22,23,23,24,24,25,25,26,26,27,27],"right_children":[2,4,6,8,10,12,14,16,18,20,22,24,-1,26,28,30,32,34,-1,36,-1,38,40,42,44,46,48,50,-1,-1,-1,-1,-1,-1,-1,-1,-1,-1,-1,-1,-1,-1,-1,-1,-1,-1,-1,-1,-1,-1,-1],"split_conditions":[5E0,3E0,9E0,1.4538538E0,1.0500224E0,1E0,1.1E1,1E0,3.4E1,1E0,1E0,2E0,1.3901971E-1,2.8E1,1.2E1,6E0,2.8E1,1E0,8.040817E-2,1E0,6.551489E-2,1.644195E0,3E0,4E0,1E0,2E0,4.4E1,1.5013785E0,1.186763E-1,-1.0367401E-1,-5.493618E-2,-1.01309575E-1,6.7273945E-2,-1.06018834E-1,-1.836087E-2,-1.05576314E-1,-1.425076E-2,-1.638769E-2,6.749841E-2,1.8449739E-2,1.3670711E-1,3.636546E-2,9.669878E-2,-1.3103709E-1,5.964616E-3,-8.1383824E-2,7.076808E-2,9.330997E-2,1.193681E-1,8.79976E-2,1.15020595E-1],"split_indices":[2,2,2,0,0,7,2,5,3,5,5,8,0,3,2,9,3,4,0,6,0,0,9,9,4,9,3,0,0,0,0,0,0,0,0,0,0,0,0,0,0,0,0,0,0,0,0,0,0,0,0],"split_type":[0,0,0,0,0,0,0,0,0,0,0,0,0,0,0,0,0,0,0,0,0,0,0,0,0,0,0,0,0,0,0,0,0,0,0,0,0,0,0,0,0,0,0,0,0,0,0,0,0,0,0],"sum_hessian":[2.7161848E3,1.6599183E3,1.0562666E3,1.3987534E3,2.611649E2,4.327964E2,6.234702E2,1.3232732E3,7.548028E1,8.067768E1,1.8048721E2,3.883222E2,4.447419E1,2.066701E2,4.1680008E2,1.291721E3,3.1552223E1,6.532789E1,1.0152384E1,7.518169E1,5.4960003E0,1.6151137E2,1.8975842E1,3.678474E2,2.0474787E1,6.0978077E1,1.4569203E2,1.07178345E2,3.0962173E2,1.2786466E3,1.3074321E1,2.4948757E1,6.6034656E0,5.1808975E1,1.3518919E1,6.879764E1,6.384047E0,1.4108708E2,2.0424276E1,6.231309E0,1.2744534E1,2.5858838E2,1.0925901E2,1.054302E1,9.931767E0,5.5977917E0,5.5380283E1,7.7907425E1,6.7784615E1,4.1380318E1,6.579803E1],"tree_param":{"num_deleted":"0","num_feature":"10","num_nodes":"51","size_leaf_vector":"1"}},{"base_weights":[-1.8726748E-1,-9.1353047E-1,7.558099E-1,-9.858001E-1,-3.1937328E-1,4.2852348E-1,1.0477518E0,-1.0114564E0,-5.487885E-1,-7.640635E-1,1.2662137E-1,2.9360664E-1,1.0310042E0,9.235453E-1,1.1696551E-1,-1.0251061E0,-7.1794534E-1,-1.0327355E-1,2.9729465E-1,-8.807482E-1,4.7483087E-2,-2.0355669E-1,1.1015916E0,2.1016541E-1,1.3485943E-1,2.5803417E-2,1.0728781E0,6.097956E-1,1.0537851E0,-1.0301926E-1,-5.1049776E-2,-1.02315865E-1,2.4111103E-2,-1.0181826E-1,7.9854E-2,-1.04355894E-1,-2.0777015E-2,-4.5402836E-2,1.2819082E-1,1.664042E-1,4.8694395E-2,1.1882605E-2,1.238858E-1,9.028983E-2,1.2300332E-1,6.6429935E-3,8.982036E-2,2.6746888E-2,1.0741543E-1],"categories":[],"categories_nodes":[],"categories_segments":[],"categories_sizes":[],"default_left":[0,0,0,0,0,0,0,0,0,0,0,0,0,0,0,0,0,0,0,0,0,0,0,0,0,0,0,0,0,0,0,0,0,0,0,0,0,0,0,0,0,0,0,0,0,0,0,0,0],"id":16,"left_children":[1,3,5,7,9,11,13,15,17,19,21,23,25,27,-1,29,31,-1,33,35,-1,37,39,41,-1,-1,43,45,47,-1,-1,-1,-1,-1,-1,-1,-1,-1,-1,-1,-1,-1,-1,-1,-1,-1,-1,-1,-1],"loss_changes":[1.7334635E3,6.1075195E1,1.0476892E2,1.3730957E1,3.1139112E1,4.2035583E1,7.721863E0,4.0809326E0,3.0133055E1,1.1768543E1,2.5656332E1,3.730188E1,2.7948532E0,1.1317886E1,0E0,2.4753418E0,1.6863184E1,0E0,1.8801556E1,7.683937E0,0E0,2.2854174E1,6.153042E0,3.714116E1,0E0,0E0,1.2857666E0,1.3767544E1,3.0035553E0,0E0,0E0,0E0,0E0,0E0,0E0,0E0,0E0,0E0,0E0,0E0,0E0,0E0,0E0,0E0,0E0,0E0,0E0,0E0,0E0],"parents":[2147483647,0,0,1,1,2,2,3,3,4,4,5,5,6,6,7,7,8,8,9,9,10,10,11,11,12,12,13,13,15,15,16,16,18,18,19,19,21,21,22,22,23,23,26,26,27,27,28,28],"right_children":[2,4,6,8,10,12,14,16,18,20,22,24,26,28,-1,30,32,-1,34,36,-1,38,40,42,-1,-1,44,46,48,-1,-1,-1,-1,-1,-1,-1,-1,-1,-1,-1,-1,-1,-1,-1,-1,-1,-1,-1,-1],"split_conditions":[4E0,3E0,9E0,1.4538538E0,1.2171696E0,1E0,1.2E1,1.19965195E2,2E0,1E0,4E0,1E0,1.4E1,2.8E1,1.1696551E-1,6E0,2.8E1,-1.0327355E-1,3.538411E1,1E0,4.7483087E-2,1E0,2.4E1,5.4E1,1.3485943E-1,2.5803417E-2,8.4219086E1,3E0,3.538411E1,-1.0301926E-1,-5.1049776E-2,-1.02315865E-1,2.4111103E-2,-1.0181826E-1,7.9854E-2,-1.04355894E-1,-2.0777015E-2,-4.5402836E-2,1.2819082E-1,1.664042E-1,4.8694395E-2,1.1882605E-2,1.238858E-1,9.028983E-2,1.2300332E-1,6.6429935E-3,8.982036E-2,2.6746888E-2,1.0741543E-1],"split_indices":[2,2,2,0,0,5,2,1,2,5,9,7,3,3,0,9,3,0,1,4,0,6,3,3,0,0,1,9,1,0,0,0,0,0,0,0,0,0,0,0,0,0,0,0,0,0,0,0,0],"split_type":[0,0,0,0,0,0,0,0,0,0,0,0,0,0,0,0,0,0,0,0,0,0,0,0,0,0,0,0,0,0,0,0,0,0,0,0,0,0,0,0,0,0,0,0,0,0,0,0,0],"sum_hessian":[2.528883E3,1.4286852E3,1.1001978E3,1.273166E3,1.555192E2,5.1986365E2,5.803341E2,1.2013235E3,7.184246E1,7.751638E1,7.800282E1,4.259628E2,9.390087E1,2.916993E2,2.8863483E2,1.1455571E3,5.5766434E1,4.5561405E1,2.6281054E1,7.110817E1,6.408209E0,5.8860622E1,1.9142199E1,3.9585312E2,3.0109655E1,5.1935215E0,8.870735E1,8.723383E1,2.0446547E2,1.1333528E3,1.2204322E1,4.225289E1,1.3513541E1,6.9665656E0,1.9314487E1,5.6812984E1,1.4295187E1,5.0962017E1,7.8986073E0,9.10401E0,1.0038188E1,3.6459558E2,3.1257551E1,4.5855286E1,4.285207E1,3.0673939E1,5.6559895E1,5.519644E0,1.9894582E2],"tree_param":{"num_deleted":"0","num_feature":"10","num_nodes":"49","size_leaf_vector":"1"}},{"base_weights":[-1.753652E-1,-9.0626997E-1,7.2251636E-1,-9.8746324E-1,-2.879419E-1,3.9970067E-1,1.0204983E0,-1.0316554E0,-7.596322E-1,-3.8797864E-1,7.129939E-1,3.1157473E-1,1.2924235E-1,8.5629666E-1,1.0910971E0,-1.03779845E-1,-4.3868878E-1,-9.8110276E-1,-4.2458618E-1,1.1201926E-1,-4.7186005E-1,1.2617312E-1,-2.3798427E-2,-3.2764602E-1,4.2809543E-1,5.8141553E-1,1.020675E0,9.1882867E-1,1.1200873E-1,-8.983721E-2,1.4190475E-2,-3.2472476E-2,-1.0344044E-1,-7.322813E-2,6.78817E-2,-5.5272788E-2,1.1461764E-1,-4.8599433E-2,9.321084E-2,3.5577606E-2,1.1593311E-1,1.9853132E-2,9.4108514E-2,8.5403375E-2,1.1289995E-1,4.9754776E-2,1.0122337E-1],"categories":[],"categories_nodes":[],"categories_segments":[],"categories_sizes":[],"default_left":[0,0,0,0,0,0,0,0,0,0,0,0,0,0,0,0,0,0,0,0,0,0,0,0,0,0,0,0,0,0,0,0,0,0,0,0,0,0,0,0,0,0,0,0,0,0,0],"id":17,"left_children":[1,3,5,7,9,11,13,15,17,19,21,23,-1,25,27,-1,29,31,33,-1,35,-1,-1,37,39,41,43,45,-1,-1,-1,-1,-1,-1,-1,-1,-1,-1,-1,-1,-1,-1,-1,-1,-1,-1,-1],"loss_changes":[1.5713837E3,6.597717E1,1.0296045E2,1.0958496E1,1.5757325E1,4.0305824E1,5.5359497E0,3.0925293E0,1.39236145E1,1.8392109E1,7.814823E0,3.5316288E1,0E0,7.1994247E0,9.01947E-1,0E0,3.2551746E0,3.707985E0,2.720682E1,0E0,1.8228415E1,0E0,0E0,1.5091195E1,2.073478E1,9.021111E0,9.601288E-1,1.907093E0,0E0,0E0,0E0,0E0,0E0,0E0,0E0,0E0,0E0,0E0,0E0,0E0,0E0,0E0,0E0,0E0,0E0,0E0,0E0],"parents":[2147483647,0,0,1,1,2,2,3,3,4,4,5,5,6,6,7,7,8,8,9,9,10,10,11,11,13,13,14,14,16,16,17,17,18,18,20,20,23,23,24,24,25,25,26,26,27,27],"right_children":[2,4,6,8,10,12,14,16,18,20,22,24,-1,26,28,-1,30,32,34,-1,36,-1,-1,38,40,42,44,46,-1,-1,-1,-1,-1,-1,-1,-1,-1,-1,-1,-1,-1,-1,-1,-1,-1,-1,-1],"split_conditions":[4E0,3E0,9E0,2E0,5E0,1E0,2.8E1,6E0,3E0,1E1,2.4E1,2E0,1.2924235E-1,1.1E1,1E1,-1.03779845E-1,4.206865E1,1.1E1,1E0,1.1201926E-1,4.8E1,1.2617312E-1,-2.3798427E-2,4.6E1,5.4E1,9.702899E1,1.3E1,5.7314156E1,1.1200873E-1,-8.983721E-2,1.4190475E-2,-3.2472476E-2,-1.0344044E-1,-7.322813E-2,6.78817E-2,-5.5272788E-2,1.1461764E-1,-4.8599433E-2,9.321084E-2,3.5577606E-2,1.1593311E-1,1.9853132E-2,9.4108514E-2,8.5403375E-2,1.1289995E-1,4.9754776E-2,1.0122337E-1],"split_indices":[2,2,2,2,9,7,3,9,9,3,3,9,0,2,2,0,1,3,4,0,3,0,0,3,3,1,2,1,0,0,0,0,0,0,0,0,0,0,0,0,0,0,0,0,0,0,0],"split_type":[0,0,0,0,0,0,0,0,0,0,0,0,0,0,0,0,0,0,0,0,0,0,0,0,0,0,0,0,0,0,0,0,0,0,0,0,0,0,0,0,0,0,0,0,0,0,0],"sum_hessian":[2.3924336E3,1.3188431E3,1.0735906E3,1.1652377E3,1.5360547E2,5.1644574E2,5.571448E2,9.729812E2,1.9225647E2,1.4020529E2,1.3400183E1,4.7127267E2,4.5173096E1,1.7146758E2,3.8567722E2,9.6226215E2,1.0719067E1,1.1458545E2,7.767102E1,6.7361507E0,1.3346915E2,8.289925E0,5.1102576E0,7.238177E1,3.988909E2,6.58639E1,1.0560367E2,6.026406E1,3.2541315E2,5.6769915E0,5.0420756E0,9.138808E0,1.0544664E2,6.0997578E1,1.6673443E1,1.2774307E2,5.726073E0,6.484509E1,7.5366697E0,3.6434375E2,3.4547157E1,3.265412E1,3.320978E1,4.510315E1,6.0500515E1,1.2084887E1,4.8179173E1],"tree_param":{"num_deleted":"0","num_feature":"10","num_nodes":"47","size_leaf_vector":"1"}},{"base_weights":[-1.761177E-1,-8.7950116E-1,6.6449535E-1,-9.7161466E-1,-2.1537757E-1,2.6329893E-1,9.2115915E-1,-1.0201497E0,-7.2628176E-1,-6.6560924E-1,2.0222902E-1,1.2285231E-1,9.5779717E-1,7.552385E-1,1.0632364E0,-1.0267913E0,-4.1536775E-1,-9.1067386E-1,2.574367E-1,-7.85283E-1,5.6579687E-2,-7.0466444E-2,9.713142E-1,-2.0475265E-2,8.3099365E-1,3.9985742E-2,1.015998E0,6.1300683E-1,1.1125358E-1,9.4103813E-1,1.1055347E0,-1.0337176E-1,-8.373651E-2,-8.890992E-2,1.4672637E-2,-9.8765455E-2,7.815429E-2,-9.60373E-2,8.5740976E-2,-9.3414746E-2,4.8590593E-2,-1.0425955E-1,1.5462205E-2,1.4555179E-1,4.3112375E-2,-1.5113965E-2,6.82576E-2,3.4475353E-2,1.108968E-1,1.2694226E-1,8.073032E-2,-2.9021967E-2,7.4213095E-2,7.0625916E-2,1.0746328E-1,8.9374766E-2,1.1287358E-1],"categories":[],"categories_nodes":[],"categories_segments":[],"categories_sizes":[],"default_left":[0,0,0,0,0,0,0,0,0,0,0,0,0,0,0,0,0,0,0,0,0,0,0,0,0,0,0,0,0,0,0,0,0,0,0,0,0,0,0,0,0,0,0,0,0,0,0,0,0,0,0,0,0,0,0,0,0],"id":18,"left_children":[1,3,5,7,9,11,13,15,17,19,21,23,25,27,29,31,33,35,37,39,-1,41,43,45,47,-1,49,51,-1,53,55,-1,-1,-1,-1,-1,-1,-1,-1,-1,-1,-1,-1,-1,-1,-1,-1,-1,-1,-1,-1,-1,-1,-1,-1,-1,-1],"loss_changes":[1.3191609E3,7.409137E1,1.0442886E2,1.195636E1,2.8191847E1,3.8701874E1,1.3801147E1,3.1393433E0,3.2809822E1,1.106072E1,1.6465755E1,3.3732803E1,1.7628632E0,1.4016296E1,6.7196655E-1,2.855835E-1,3.1454406E0,2.0502167E1,2.2106197E1,1.2958206E1,0E0,1.2994997E1,4.7431774E0,2.557208E1,7.1788177E0,0E0,2.1400108E0,2.4602707E1,0E0,2.12368E0,1.7233276E-1,0E0,0E0,0E0,0E0,0E0,0E0,0E0,0E0,0E0,0E0,0E0,0E0,0E0,0E0,0E0,0E0,0E0,0E0,0E0,0E0,0E0,0E0,0E0,0E0,0E0,0E0],"parents":[2147483647,0,0,1,1,2,2,3,3,4,4,5,5,6,6,7,7,8,8,9,9,10,10,11,11,12,12,13,13,14,14,15,15,16,16,17,17,18,18,19,19,21,21,22,22,23,23,24,24,26,26,27,27,29,29,30,30],"right_children":[2,4,6,8,10,12,14,16,18,20,22,24,26,28,30,32,34,36,38,40,-1,42,44,46,48,-1,50,52,-1,54,56,-1,-1,-1,-1,-1,-1,-1,-1,-1,-1,-1,-1,-1,-1,-1,-1,-1,-1,-1,-1,-1,-1,-1,-1,-1,-1],"split_conditions":[4E0,3E0,8E0,2E0,1.2171696E0,1E0,1.1E1,6E0,1.3994048E0,1E0,4E0,1.7540164E0,1.7E1,4.4E1,1.2E1,1E0,9.9655634E-1,1E0,3E0,5E0,5.6579687E-2,3.3227497E1,2.4E1,1E0,7.1009674E1,3.9985742E-2,3E1,2E0,1.1125358E-1,1.5013785E0,2E0,-1.0337176E-1,-8.373651E-2,-8.890992E-2,1.4672637E-2,-9.8765455E-2,7.815429E-2,-9.60373E-2,8.5740976E-2,-9.3414746E-2,4.8590593E-2,-1.0425955E-1,1.5462205E-2,1.4555179E-1,4.3112375E-2,-1.5113965E-2,6.82576E-2,3.4475353E-2,1.108968E-1,1.2694226E-1,8.073032E-2,-2.9021967E-2,7.4213095E-2,7.0625916E-2,1.0746328E-1,8.9374766E-2,1.1287358E-1],"split_indices":[2,2,2,2,0,5,2,9,0,5,9,0,3,3,2,6,0,5,9,9,0,1,3,6,1,0,3,9,0,0,9,0,0,0,0,0,0,0,0,0,0,0,0,0,0,0,0,0,0,0,0,0,0,0,0,0,0],"split_type":[0,0,0,0,0,0,0,0,0,0,0,0,0,0,0,0,0,0,0,0,0,0,0,0,0,0,0,0,0,0,0,0,0,0,0,0,0,0,0,0,0,0,0,0,0,0,0,0,0,0,0,0,0,0,0,0,0],"sum_hessian":[2.2290625E3,1.2135651E3,1.0154975E3,1.0653401E3,1.4822499E2,3.9698615E2,6.1851135E2,8.8675244E2,1.7858762E2,7.104058E1,7.718442E1,3.3118777E2,6.579837E1,2.882282E2,3.302831E2,8.764299E2,1.0322548E1,1.504592E2,2.8128414E1,6.5078255E1,5.9623213E0,5.7651302E1,1.9533115E1,2.7624664E2,5.4941147E1,6.958762E0,5.8839607E1,2.0810301E2,8.01252E1,9.0906166E1,2.3937695E2,8.4121423E2,3.521565E1,5.2858696E0,5.036678E0,1.4431071E2,6.1484857E0,9.085734E0,1.904268E1,5.849344E1,6.584818E0,1.0156164E1,4.7495136E1,9.406805E0,1.0126311E1,2.3361377E2,4.2632862E1,2.0799084E1,3.414206E1,2.4276817E1,3.456279E1,2.5873009E1,1.8223E2,3.5247993E1,5.5658176E1,2.7536572E1,2.1184038E2],"tree_param":{"num_deleted":"0","num_feature":"10","num_nodes":"57","size_leaf_vector":"1"}},{"base_weights":[-1.6477025E-1,-8.743842E-1,6.393117E-1,-9.753867E-1,-1.838879E-1,3.4630775E-1,9.380284E-1,-1.0100307E0,-5.9149575E-1,-6.022673E-1,2.6268408E-1,2.9923826E-2,5.502573E-1,7.328342E-1,1.0445526E0,-1.0165861E0,-4.2729753E-1,-1.0203677E-1,2.3289804E-1,-7.894488E-1,6.707943E-2,-1.0563662E-1,4.5573935E-1,-5.757245E-1,2.1091755E-1,-2.6345617E-1,6.243722E-1,1.326232E-1,8.741021E-1,8.9028007E-1,1.07372895E-1,-1.0297501E-1,-7.355109E-2,-8.90634E-2,1.5119346E-2,-3.692793E-2,1.6186596E-1,-9.3075E-2,4.4831064E-2,-4.7382303E-2,5.9913654E-2,-8.952786E-2,4.422885E-2,-1.1054612E-3,7.752844E-2,5.255524E-2,-1.1215439E-1,4.9710985E-2,1.0499831E-1,-3.254081E-2,1.0102171E-1,6.0708858E-2,1.05707645E-1,6.6938855E-2,1.0657623E-1],"categories":[],"categories_nodes":[],"categories_segments":[],"categories_sizes":[],"default_left":[0,0,0,0,0,0,0,0,0,0,0,0,0,0,0,0,0,0,0,0,0,0,0,0,0,0,0,0,0,0,0,0,0,0,0,0,0,0,0,0,0,0,0,0,0,0,0,0,0,0,0,0,0,0,0],"id":19,"left_children":[1,3,5,7,9,11,13,15,17,19,21,23,25,27,29,31,33,-1,35,37,-1,-1,39,41,43,45,47,49,51,53,-1,-1,-1,-1,-1,-1,-1,-1,-1,-1,-1,-1,-1,-1,-1,-1,-1,-1,-1,-1,-1,-1,-1,-1,-1],"loss_changes":[1.1931128E3,7.7280396E1,8.5483185E1,1.2285828E1,2.6868921E1,3.202142E1,9.832916E0,2.9544067E0,2.944065E1,1.8190708E1,1.8268175E1,2.1570341E1,1.8367935E1,1.4217712E1,4.701538E-1,2.4857178E0,3.2420828E0,0E0,2.4863594E1,1.17985115E1,0E0,0E0,8.498796E0,1.5128732E1,1.8972542E1,1.8125057E1,1.4478249E1,1.374879E1,6.0350647E0,1.4666748E0,0E0,0E0,0E0,0E0,0E0,0E0,0E0,0E0,0E0,0E0,0E0,0E0,0E0,0E0,0E0,0E0,0E0,0E0,0E0,0E0,0E0,0E0,0E0,0E0,0E0],"parents":[2147483647,0,0,1,1,2,2,3,3,4,4,5,5,6,6,7,7,8,8,9,9,10,10,11,11,12,12,13,13,14,14,15,15,16,16,18,18,19,19,22,22,23,23,24,24,25,25,26,26,27,27,28,28,29,29],"right_children":[2,4,6,8,10,12,14,16,18,20,22,24,26,28,30,32,34,-1,36,38,-1,-1,40,42,44,46,48,50,52,54,-1,-1,-1,-1,-1,-1,-1,-1,-1,-1,-1,-1,-1,-1,-1,-1,-1,-1,-1,-1,-1,-1,-1,-1,-1],"split_conditions":[4E0,3E0,9E0,1.3994048E0,1.2585045E0,6.2987686E1,1.1E1,6E0,2E0,1E0,2E0,1.1089635E0,1.5E1,5.7314156E1,2.2E1,1.19965195E2,1.7E1,-1.0203677E-1,1E0,1E0,6.707943E-2,-1.0563662E-1,3.1141586E1,1E0,4E0,8.823704E1,1.7540164E0,4.4E1,1E0,1.0190089E2,1.07372895E-1,-1.0297501E-1,-7.355109E-2,-8.90634E-2,1.5119346E-2,-3.692793E-2,1.6186596E-1,-9.3075E-2,4.4831064E-2,-4.7382303E-2,5.9913654E-2,-8.952786E-2,4.422885E-2,-1.1054612E-3,7.752844E-2,5.255524E-2,-1.1215439E-1,4.9710985E-2,1.0499831E-1,-3.254081E-2,1.0102171E-1,6.0708858E-2,1.05707645E-1,6.6938855E-2,1.0657623E-1],"split_indices":[2,2,2,0,0,1,2,9,2,6,9,0,3,1,3,1,3,0,4,5,0,0,1,4,9,1,0,3,4,1,0,0,0,0,0,0,0,0,0,0,0,0,0,0,0,0,0,0,0,0,0,0,0,0,0],"split_type":[0,0,0,0,0,0,0,0,0,0,0,0,0,0,0,0,0,0,0,0,0,0,0,0,0,0,0,0,0,0,0,0,0,0,0,0,0,0,0,0,0,0,0,0,0,0,0,0,0,0,0,0,0,0,0],"sum_hessian":[2.0890444E3,1.1096632E3,9.793813E2,9.6770013E2,1.4196303E2,4.9550848E2,4.8387283E2,8.8610297E2,8.15972E1,7.3115105E1,6.884792E1,1.9466866E2,3.0083984E2,1.6804752E2,3.1582532E2,8.7550964E2,1.0593314E1,5.3517982E1,2.8079218E1,6.407402E1,9.041085E0,8.219098E0,6.0628822E1,4.428834E1,1.5038031E2,2.4900488E1,2.7593933E2,3.2386097E1,1.356614E2,5.5242E1,2.605833E2,8.337958E2,4.171386E1,5.5824924E0,5.0108213E0,2.0084915E1,7.994303E0,5.7731495E1,6.342525E0,7.794865E0,5.2833958E1,3.379931E1,1.0489033E1,1.0863377E2,4.1746536E1,1.3174298E1,1.1726189E1,2.140916E2,6.184775E1,2.1693232E1,1.0692864E1,5.6918457E1,7.874296E1,2.6588188E1,2.8653812E1],"tree_param":{"num_deleted":"0","num_feature":"10","num_nodes":"55","size_leaf_vector":"1"}},{"base_weights":[-1.6368335E-1,-9.5567465E-1,4.9342158E-1,-1.019078E0,-6.568265E-1,1.1709486E-1,8.489804E-1,-1.0272362E-1,-3.5322454E-2,-8.809304E-1,2.701048E-1,-6.713605E-1,2.4364965E-1,6.573063E-1,1.0290198E0,-9.7135174E-1,7.666152E-2,-9.51238E-2,7.579048E-1,-9.6896183E-1,2.694134E-1,7.809735E-2,6.983446E-1,3.6390494E-3,7.602334E-1,8.500666E-1,1.0572076E-1,-3.7950974E-2,-1.02170184E-1,1.3723597E-2,1.9285649E-1,-1.1173721E-1,-6.9146976E-2,-9.61075E-2,9.083079E-2,-5.463186E-3,8.250637E-2,-1.8384228E-2,7.8131154E-2,-9.562576E-2,4.8618834E-2,6.2187057E-2,1.07441485E-1,5.6335278E-2,1.03164434E-1],"categories":[],"categories_nodes":[],"categories_segments":[],"categories_sizes":[],"default_left":[0,0,0,0,0,0,0,0,0,0,0,0,0,0,0,0,0,0,0,0,0,0,0,0,0,0,0,0,0,0,0,0,0,0,0,0,0,0,0,0,0,0,0,0,0],"id":20,"left_children":[1,3,5,7,9,11,13,-1,-1,15,17,19,21,23,25,27,-1,-1,29,31,33,35,37,39,41,43,-1,-1,-1,-1,-1,-1,-1,-1,-1,-1,-1,-1,-1,-1,-1,-1,-1,-1,-1],"loss_changes":[1.02046497E3,1.6177124E1,1.4332043E2,3.6116333E0,3.3147827E1,5.223784E1,1.8337006E1,0E0,0E0,1.9785873E1,1.9553698E1,2.0544388E1,3.3851883E1,1.8138023E1,5.255127E-1,3.236061E0,0E0,0E0,1.6552586E1,1.5028801E0,1.5175079E1,3.2894497E1,8.934013E0,1.79207E1,9.458221E0,1.6847477E0,0E0,0E0,0E0,0E0,0E0,0E0,0E0,0E0,0E0,0E0,0E0,0E0,0E0,0E0,0E0,0E0,0E0,0E0,0E0],"parents":[2147483647,0,0,1,1,2,2,3,3,4,4,5,5,6,6,9,9,10,10,11,11,12,12,13,13,14,14,15,15,18,18,19,19,20,20,21,21,22,22,23,23,24,24,25,25],"right_children":[2,4,6,8,10,12,14,-1,-1,16,18,20,22,24,26,28,-1,-1,30,32,34,36,38,40,42,44,-1,-1,-1,-1,-1,-1,-1,-1,-1,-1,-1,-1,-1,-1,-1,-1,-1,-1,-1],"split_conditions":[3E0,2E0,8E0,6E0,1.3994048E0,9.745261E-1,1.1E1,-1.0272362E-1,-3.5322454E-2,1E0,3E0,1E0,4E0,2E0,2.1E1,1.1E1,7.666152E-2,-9.51238E-2,1E0,8.866091E-1,4.628675E1,1E0,2.9691898E1,7.5746155E1,1E0,1.0190089E2,1.0572076E-1,-3.7950974E-2,-1.02170184E-1,1.3723597E-2,1.9285649E-1,-1.1173721E-1,-6.9146976E-2,-9.61075E-2,9.083079E-2,-5.463186E-3,8.250637E-2,-1.8384228E-2,7.8131154E-2,-9.562576E-2,4.8618834E-2,6.2187057E-2,1.07441485E-1,5.6335278E-2,1.03164434E-1],"split_indices":[2,2,2,9,0,0,2,0,0,5,9,4,9,9,3,3,0,0,4,0,1,5,1,1,6,1,0,0,0,0,0,0,0,0,0,0,0,0,0,0,0,0,0,0,0],"split_type":[0,0,0,0,0,0,0,0,0,0,0,0,0,0,0,0,0,0,0,0,0,0,0,0,0,0,0,0,0,0,0,0,0,0,0,0,0,0,0,0,0,0,0,0,0],"sum_hessian":[1.9589375E3,8.8809076E2,1.0708468E3,7.306637E2,1.5742703E2,5.208761E2,5.499707E2,7.212837E2,9.380014E0,1.26816315E2,3.0610716E1,7.144681E1,4.4942926E2,2.6863098E2,2.8133975E2,1.20607506E2,6.2088113E0,8.465337E0,2.2145378E1,5.425424E1,1.719257E1,3.3032956E2,1.19099686E2,3.66854E1,2.3194559E2,4.2524582E1,2.3881517E2,1.01254E1,1.1048211E2,1.520246E1,6.942918E0,3.337677E1,2.087747E1,5.7035165E0,1.1489052E1,2.8127618E2,4.9053387E1,1.0133575E1,1.0896611E2,1.19441595E1,2.4741238E1,1.6309799E2,6.8847595E1,1.807944E1,2.4445143E1],"tree_param":{"num_deleted":"0","num_feature":"10","num_nodes":"45","size_leaf_vector":"1"}},{"base_weights":[-1.512621E-1,-8.5205895E-1,5.791E-1,-1.0059329E0,-4.851165E-1,3.1714204E-1,8.9314073E-1,-1.0147917E0,-3.410394E-2,-6.670486E-1,1.0628255E-1,2.3813039E-1,1.20343246E-1,6.5054816E-1,9.779504E-1,-1.0241317E-1,-7.718201E-1,-7.2274315E-1,1.3732205E-1,-4.3482652E-1,6.126494E-1,1.6772863E-1,1.0825963E-1,4.5130593E-1,1.0563798E-1,7.3752874E-1,1.0231571E0,-9.813992E-2,1.618129E-2,-5.4622777E-2,-1.00648895E-1,1.13511086E-1,-8.949926E-2,-1.0787523E-1,1.1256975E-1,2.2679014E-2,-7.296614E-2,-1.04132695E-2,7.274479E-2,9.464089E-4,8.782952E-2,4.238569E-2,1.04107276E-1],"categories":[],"categories_nodes":[],"categories_segments":[],"categories_sizes":[],"default_left":[0,0,0,0,0,0,0,0,0,0,0,0,0,0,0,0,0,0,0,0,0,0,0,0,0,0,0,0,0,0,0,0,0,0,0,0,0,0,0,0,0,0,0],"id":21,"left_children":[1,3,5,7,9,11,13,15,-1,17,19,21,-1,23,25,-1,27,29,-1,31,33,35,-1,37,-1,39,41,-1,-1,-1,-1,-1,-1,-1,-1,-1,-1,-1,-1,-1,-1,-1,-1],"loss_changes":[9.450379E2,5.2709656E1,7.410425E1,3.5583496E0,3.0228897E1,3.4345444E1,7.813324E0,6.9299316E-1,0E0,2.5365318E1,1.8570587E1,2.6887886E1,0E0,8.366817E0,2.531189E0,0E0,5.687605E0,9.940407E0,0E0,2.476866E1,3.1521084E1,2.2503506E1,0E0,1.1594923E1,0E0,5.2626057E0,2.2631836E0,0E0,0E0,0E0,0E0,0E0,0E0,0E0,0E0,0E0,0E0,0E0,0E0,0E0,0E0,0E0,0E0],"parents":[2147483647,0,0,1,1,2,2,3,3,4,4,5,5,6,6,7,7,9,9,10,10,11,11,13,13,14,14,16,16,17,17,19,19,20,20,21,21,23,23,25,25,26,26],"right_children":[2,4,6,8,10,12,14,16,-1,18,20,22,-1,24,26,-1,28,30,-1,32,34,36,-1,38,-1,40,42,-1,-1,-1,-1,-1,-1,-1,-1,-1,-1,-1,-1,-1,-1,-1,-1],"split_conditions":[4E0,2E0,9E0,6E0,1E0,1E0,2.6E1,1E0,-3.410394E-2,5.3E1,3E0,5.4E1,1.20343246E-1,1.3E1,1E1,-1.0241317E-1,7.164415E1,1E0,1.3732205E-1,1.5E1,2.2E1,2E0,1.0825963E-1,3E0,1.0563798E-1,2E0,3.0518745E1,-9.813992E-2,1.618129E-2,-5.4622777E-2,-1.00648895E-1,1.13511086E-1,-8.949926E-2,-1.0787523E-1,1.1256975E-1,2.2679014E-2,-7.296614E-2,-1.04132695E-2,7.274479E-2,9.464089E-4,8.782952E-2,4.238569E-2,1.04107276E-1],"split_indices":[2,2,2,9,4,7,3,6,0,3,9,3,0,2,2,0,1,8,0,3,3,8,0,9,0,9,1,0,0,0,0,0,0,0,0,0,0,0,0,0,0,0,0],"split_type":[0,0,0,0,0,0,0,0,0,0,0,0,0,0,0,0,0,0,0,0,0,0,0,0,0,0,0,0,0,0,0,0,0,0,0,0,0,0,0,0,0,0,0],"sum_hessian":[1.8444065E3,9.411694E2,9.032371E2,6.6187616E2,2.7929324E2,4.9355045E2,4.0968668E2,6.5265424E2,9.221915E0,2.1348953E2,6.58037E1,4.5431732E2,3.9233128E1,1.083705E2,3.013162E2,6.2539844E2,2.7255758E1,2.0844524E2,5.044302E0,3.1878874E1,3.3924828E1,4.2046265E2,3.3854668E1,7.410222E1,3.4268288E1,5.0430054E1,2.5088614E2,2.2217321E1,5.0384374E0,1.3030739E2,7.813785E1,6.8935547E0,2.498532E1,7.6388063E0,2.628602E1,3.9519992E2,2.5262707E1,2.4813879E1,4.9288338E1,8.343497E0,4.2086555E1,7.9980907E0,2.4288805E2],"tree_param":{"num_deleted":"0","num_feature":"10","num_nodes":"43","size_leaf_vector":"1"}},{"base_weights":[-1.4895584E-1,-9.454054E-1,4.3758035E-1,-1.0117385E0,-6.5161645E-1,2.4845012E-2,7.2923774E-1,-1.02164745E-1,-3.3158492E-2,-7.6260084E-1,9.855865E-2,-4.989496E-1,2.1350493E-1,5.5679053E-1,9.70732E-1,-9.572288E-1,4.232621E-3,-6.233728E-1,3.8559195E-1,4.0779907E-2,6.931027E-1,2.7573833E-1,7.6270044E-1,8.0222017E-1,1.0279824E0,-3.283975E-2,-1.0156282E-1,-1.0275908E-1,5.872154E-2,-6.9899045E-2,3.7911706E-2,-1.703576E-2,9.054553E-2,-5.432748E-3,1.0554887E-1,-3.886185E-2,7.833193E-2,7.1884254E-3,9.827013E-2,4.310788E-2,8.7041736E-2,5.0628047E-2,9.94276E-2,7.614214E-2,1.0547801E-1],"categories":[],"categories_nodes":[],"categories_segments":[],"categories_sizes":[],"default_left":[0,0,0,0,0,0,0,0,0,0,0,0,0,0,0,0,0,0,0,0,0,0,0,0,0,0,0,0,0,0,0,0,0,0,0,0,0,0,0,0,0,0,0,0,0],"id":22,"left_children":[1,3,5,7,9,11,13,-1,-1,15,-1,17,19,21,23,25,27,29,31,33,35,37,39,41,43,-1,-1,-1,-1,-1,-1,-1,-1,-1,-1,-1,-1,-1,-1,-1,-1,-1,-1,-1,-1],"loss_changes":[8.15583E2,1.3769287E1,1.21034805E2,3.7198486E0,2.6042168E1,4.1355003E1,2.3996704E1,0E0,0E0,1.9542465E1,0E0,1.2438272E1,2.5451387E1,1.9818092E1,1.5303802E0,3.501007E0,1.714337E1,7.6596184E0,4.2829847E0,2.1983728E1,8.246265E0,2.124526E1,6.7396774E0,3.2738495E0,4.7303772E-1,0E0,0E0,0E0,0E0,0E0,0E0,0E0,0E0,0E0,0E0,0E0,0E0,0E0,0E0,0E0,0E0,0E0,0E0,0E0,0E0],"parents":[2147483647,0,0,1,1,2,2,3,3,4,4,5,5,6,6,9,9,11,11,12,12,13,13,14,14,15,15,16,16,17,17,18,18,19,19,20,20,21,21,22,22,23,23,24,24],"right_children":[2,4,6,8,10,12,14,-1,-1,16,-1,18,20,22,24,26,28,30,32,34,36,38,40,42,44,-1,-1,-1,-1,-1,-1,-1,-1,-1,-1,-1,-1,-1,-1,-1,-1,-1,-1,-1,-1],"split_conditions":[3E0,2E0,7E0,6E0,1E0,1.1089635E0,1.1E1,-1.02164745E-1,-3.3158492E-2,1.3994048E0,9.855865E-2,1E0,4E0,3E0,1.2E1,1.1E1,2.3E1,1.347729E2,7.164415E1,4.7E1,2.9691898E1,1.8601928E0,2.3E1,1.5013785E0,2E0,-3.283975E-2,-1.0156282E-1,-1.0275908E-1,5.872154E-2,-6.9899045E-2,3.7911706E-2,-1.703576E-2,9.054553E-2,-5.432748E-3,1.0554887E-1,-3.886185E-2,7.833193E-2,7.1884254E-3,9.827013E-2,4.310788E-2,8.7041736E-2,5.0628047E-2,9.94276E-2,7.614214E-2,1.0547801E-1],"split_indices":[2,2,2,9,5,0,2,0,0,0,0,5,9,9,2,3,3,1,1,3,1,0,3,0,9,0,0,0,0,0,0,0,0,0,0,0,0,0,0,0,0,0,0,0,0],"split_type":[0,0,0,0,0,0,0,0,0,0,0,0,0,0,0,0,0,0,0,0,0,0,0,0,0,0,0,0,0,0,0,0,0,0,0,0,0,0,0,0,0,0,0,0,0],"sum_hessian":[1.7439973E3,7.393848E2,1.0046124E3,6.011993E2,1.3818552E2,4.164142E2,5.8819824E2,5.9207153E2,9.12778E0,1.2991304E2,8.272471E0,1.0983211E2,3.065821E2,3.450845E2,2.4311372E2,1.0341681E2,2.6496233E1,9.6546715E1,1.3285397E1,2.2620161E2,8.0380486E1,1.4690663E2,1.9817789E2,6.545743E1,1.776563E2,9.350973E0,9.406584E1,9.290428E0,1.7205805E1,9.005651E1,6.490201E0,6.744756E0,6.54064E0,2.0768228E2,1.851934E1,5.9331236E0,7.4447365E1,1.14881905E2,3.2024727E1,4.9815575E1,1.483623E2,2.71925E1,3.826493E1,1.8915455E1,1.5874084E2],"tree_param":{"num_deleted":"0","num_feature":"10","num_nodes":"45","size_leaf_vector":"1"}},{"base_weights":[-1.4563921E-1,-9.4262594E-1,4.134123E-1,-9.7280633E-1,-4.7668532E-1,1.6398223E-1,8.183556E-1,-9.899605E-1,-6.240622E-1,-8.371902E-1,3.6541727E-1,4.2348552E-2,7.7676827E-1,6.246579E-1,9.8179716E-1,-9.9954087E-1,-3.4684416E-2,-9.9119015E-2,9.949252E-2,-1.0085588E-1,-4.621156E-1,-3.858017E-2,1.1582767E-1,-5.3554058E-2,7.7923506E-1,4.940652E-2,8.8570124E-1,4.319962E-1,1.0697533E-1,8.7433875E-1,1.0671472E-1,-1.0083882E-1,-7.157367E-2,-8.80807E-2,6.0661376E-4,-1.5181908E-2,6.176132E-2,-1.658283E-2,9.161765E-2,-3.822957E-2,3.9566167E-2,6.923711E-2,1.2077569E-1,2.4913816E-2,1.07406735E-1,2.0913446E-2,9.248433E-2],"categories":[],"categories_nodes":[],"categories_segments":[],"categories_sizes":[],"default_left":[0,0,0,0,0,0,0,0,0,0,0,0,0,0,0,0,0,0,0,0,0,0,0,0,0,0,0,0,0,0,0,0,0,0,0,0,0,0,0,0,0,0,0,0,0,0,0],"id":23,"left_children":[1,3,5,7,9,11,13,15,17,19,21,23,25,27,29,31,-1,-1,-1,-1,33,-1,-1,35,37,39,41,43,-1,45,-1,-1,-1,-1,-1,-1,-1,-1,-1,-1,-1,-1,-1,-1,-1,-1,-1],"loss_changes":[7.296214E2,9.029114E0,9.709544E1,3.1692505E0,1.3367912E1,4.446071E1,1.0994995E1,3.3602295E0,2.0234001E1,1.4899845E0,8.543653E0,3.5315487E1,7.785141E0,1.4163422E1,8.748779E-1,7.6538086E-1,0E0,0E0,0E0,0E0,2.2379384E0,0E0,0E0,2.9283833E1,7.599205E0,2.233421E0,4.5108337E0,1.3904575E1,0E0,2.9240646E0,0E0,0E0,0E0,0E0,0E0,0E0,0E0,0E0,0E0,0E0,0E0,0E0,0E0,0E0,0E0,0E0,0E0],"parents":[2147483647,0,0,1,1,2,2,3,3,4,4,5,5,6,6,7,7,8,8,9,9,10,10,11,11,12,12,13,13,14,14,15,15,20,20,23,23,24,24,25,25,26,26,27,27,29,29],"right_children":[2,4,6,8,10,12,14,16,18,20,22,24,26,28,30,32,-1,-1,-1,-1,34,-1,-1,36,38,40,42,44,-1,46,-1,-1,-1,-1,-1,-1,-1,-1,-1,-1,-1,-1,-1,-1,-1,-1,-1],"split_conditions":[3E0,1.4641131E0,9E0,1.19965195E2,2.9E1,1E0,3.4E1,6E0,3.1E1,1.5805769E0,6.803569E1,5E0,2.2E1,1E0,1.5805769E0,1.3994048E0,-3.4684416E-2,-9.9119015E-2,9.949252E-2,-1.0085588E-1,1.6E1,-3.858017E-2,1.1582767E-1,1E0,1.1036872E0,6E0,1.1709054E2,1E0,1.0697533E-1,4.182834E1,1.0671472E-1,-1.0083882E-1,-7.157367E-2,-8.80807E-2,6.0661376E-4,-1.5181908E-2,6.176132E-2,-1.658283E-2,9.161765E-2,-3.822957E-2,3.9566167E-2,6.923711E-2,1.2077569E-1,2.4913816E-2,1.07406735E-1,2.0913446E-2,9.248433E-2],"split_indices":[2,0,2,1,3,6,3,9,3,0,1,9,3,6,0,0,0,0,0,0,3,0,0,5,0,2,1,7,0,1,0,0,0,0,0,0,0,0,0,0,0,0,0,0,0,0,0],"split_type":[0,0,0,0,0,0,0,0,0,0,0,0,0,0,0,0,0,0,0,0,0,0,0,0,0,0,0,0,0,0,0,0,0,0,0,0,0,0,0,0,0,0,0,0,0,0,0],"sum_hessian":[1.6356755E3,6.7405426E2,9.6162134E2,6.32028E2,4.2026215E1,5.959458E2,3.6567554E2,6.006447E2,3.13833E1,2.9432129E1,1.2594088E1,4.9813806E2,9.780775E1,1.695548E2,1.9612076E2,5.912822E2,9.362468E0,2.5898277E1,5.485023E0,1.9042713E1,1.0389416E1,6.7304864E0,5.863601E0,4.4159384E2,5.6544216E1,1.2929446E1,8.48783E1,1.1970881E2,4.984599E1,9.179367E1,1.0432708E2,5.709311E2,2.0351152E1,5.01933E0,5.3700852E0,3.8587238E2,5.5721447E1,7.1296897E0,4.9414524E1,5.7083416E0,7.2211046E0,5.500726E1,2.987104E1,9.425388E1,2.5454926E1,6.8402643E0,8.495341E1],"tree_param":{"num_deleted":"0","num_feature":"10","num_nodes":"47","size_leaf_vector":"1"}},{"base_weights":[-1.2113602E-1,-7.894412E-1,5.0090307E-1,-9.9286014E-1,-3.8013315E-1,2.585501E-1,8.2262707E-1,-1.0046083E0,-2.6568709E-2,-7.303298E-1,9.725061E-2,1.893035E-1,1.1437322E-1,6.2698036E-1,9.7065955E-1,-1.017013E-1,-6.8838066E-1,-8.5978013E-1,6.024532E-1,-5.1963556E-1,5.426007E-1,1.266799E-1,1.21001855E-1,4.541334E-1,1.0120195E-1,7.683901E-1,1.00529335E-1,-9.570565E-2,1.1126681E-2,-9.2272855E-2,-9.408845E-3,-2.667365E-2,1.3211513E-1,1.3852924E-1,-8.3634056E-2,-1.1043679E-1,7.093071E-2,3.2460259E-3,7.158995E-2,1.1708395E-2,7.201289E-2,4.192765E-2,9.797934E-2],"categories":[],"categories_nodes":[],"categories_segments":[],"categories_sizes":[],"default_left":[0,0,0,0,0,0,0,0,0,0,0,0,0,0,0,0,0,0,0,0,0,0,0,0,0,0,0,0,0,0,0,0,0,0,0,0,0,0,0,0,0,0,0],"id":24,"left_children":[1,3,5,7,9,11,13,15,-1,17,19,21,-1,23,25,-1,27,29,31,33,35,37,-1,39,-1,41,-1,-1,-1,-1,-1,-1,-1,-1,-1,-1,-1,-1,-1,-1,-1,-1,-1],"loss_changes":[6.451145E2,6.190381E1,6.2464523E1,3.9965515E0,4.1858295E1,2.7975973E1,9.380859E0,1.2250671E0,0E0,2.541446E1,2.9582872E1,2.7190094E1,0E0,9.615761E0,5.9025574E-1,0E0,4.7513924E0,6.2725754E0,8.700077E0,2.8443424E1,1.7923407E1,2.2414053E1,0E0,9.445755E0,0E0,2.0012455E0,0E0,0E0,0E0,0E0,0E0,0E0,0E0,0E0,0E0,0E0,0E0,0E0,0E0,0E0,0E0,0E0,0E0],"parents":[2147483647,0,0,1,1,2,2,3,3,4,4,5,5,6,6,7,7,9,9,10,10,11,11,13,13,14,14,16,16,17,17,18,18,19,19,20,20,21,21,23,23,25,25],"right_children":[2,4,6,8,10,12,14,16,-1,18,20,22,-1,24,26,-1,28,30,32,34,36,38,-1,40,-1,42,-1,-1,-1,-1,-1,-1,-1,-1,-1,-1,-1,-1,-1,-1,-1,-1,-1],"split_conditions":[4E0,2E0,9E0,6E0,1.2585045E0,1E0,3.2E1,1E0,-2.6568709E-2,1E0,3E0,2.052538E0,1.1437322E-1,1E0,1E1,-1.017013E-1,2.2E1,5E0,3E0,1E1,1.7E1,1E0,1.21001855E-1,1.1E1,1.0120195E-1,1.5572169E0,1.00529335E-1,-9.570565E-2,1.1126681E-2,-9.2272855E-2,-9.408845E-3,-2.667365E-2,1.3211513E-1,1.3852924E-1,-8.3634056E-2,-1.1043679E-1,7.093071E-2,3.2460259E-3,7.158995E-2,1.1708395E-2,7.201289E-2,4.192765E-2,9.797934E-2],"split_indices":[2,2,2,9,0,7,3,6,0,5,9,0,0,6,2,0,3,9,9,3,3,5,0,2,0,0,0,0,0,0,0,0,0,0,0,0,0,0,0,0,0,0,0],"split_type":[0,0,0,0,0,0,0,0,0,0,0,0,0,0,0,0,0,0,0,0,0,0,0,0,0,0,0,0,0,0,0,0,0,0,0,0,0,0,0,0,0,0,0],"sum_hessian":[1.5498793E3,7.47024E2,8.0285535E2,4.9806747E2,2.4895647E2,4.589411E2,3.4391425E2,4.8977322E2,8.2942505E0,1.4330309E2,1.0565339E2,4.2676935E2,3.2171734E1,1.5038878E2,1.9352547E2,4.6915353E2,2.0619696E1,1.3094006E2,1.2363021E1,4.4225998E1,6.1427387E1,4.031586E2,2.3610752E1,1.0529879E2,4.508998E1,3.1681917E1,1.6184355E2,1.5286643E1,5.3330517E0,1.20803566E2,1.0136501E1,5.8802905E0,6.4827304E0,5.8236465E0,3.840235E1,5.129185E0,5.6298203E1,3.4848837E2,5.4670227E1,4.7081203E1,5.821759E1,1.3074252E1,1.8607664E1],"tree_param":{"num_deleted":"0","num_feature":"10","num_nodes":"43","size_leaf_vector":"1"}},{"base_weights":[-1.2878364E-1,-9.1748416E-1,3.6711335E-1,-9.4554144E-1,-7.4830025E-2,1.7702585E-1,8.5644776E-1,-9.9084306E-1,-5.3264034E-1,-9.266726E-2,9.185985E-2,1.0411909E-1,1.1192407E-1,6.7001367E-1,1.0002562E0,-1.0027121E0,-2.839232E-2,-7.801595E-1,5.4780085E-2,1.6453251E-1,-8.268699E-1,8.0460235E-2,8.0183333E-1,7.6572007E-1,1.02735534E-1,-1.0152469E-1,-7.013605E-2,-3.4288473E-2,-1.04308106E-1,-3.296302E-2,2.6640138E-2,-1.3816199E-1,-1.5530472E-2,-7.372742E-2,5.181556E-2,5.976674E-2,9.373563E-2,9.3779586E-2,3.0852526E-2],"categories":[],"categories_nodes":[],"categories_segments":[],"categories_sizes":[],"default_left":[0,0,0,0,0,0,0,0,0,0,0,0,0,0,0,0,0,0,0,0,0,0,0,0,0,0,0,0,0,0,0,0,0,0,0,0,0,0,0],"id":25,"left_children":[1,3,5,7,9,11,13,15,17,-1,-1,19,-1,21,23,25,-1,27,-1,29,31,33,35,37,-1,-1,-1,-1,-1,-1,-1,-1,-1,-1,-1,-1,-1,-1,-1],"loss_changes":[5.746778E2,1.333847E1,8.377784E1,9.73764E0,1.723615E1,4.46116E1,6.0911407E0,3.8550415E0,1.5516176E1,0E0,0E0,3.4189754E1,0E0,8.705318E0,1.05285645E-1,1.1193542E0,0E0,4.967436E0,0E0,2.8751303E1,1.3592588E1,8.160477E0,1.988491E0,1.1631441E0,0E0,0E0,0E0,0E0,0E0,0E0,0E0,0E0,0E0,0E0,0E0,0E0,0E0,0E0,0E0],"parents":[2147483647,0,0,1,1,2,2,3,3,4,4,5,5,6,6,7,7,8,8,11,11,13,13,14,14,15,15,17,17,19,19,20,20,21,21,22,22,23,23],"right_children":[2,4,6,8,10,12,14,16,18,-1,-1,20,-1,22,24,26,-1,28,-1,30,32,34,36,38,-1,-1,-1,-1,-1,-1,-1,-1,-1,-1,-1,-1,-1,-1,-1],"split_conditions":[3E0,1E0,1E1,1.3994048E0,2E0,1E0,1.2E1,6E0,3.4E1,-9.266726E-2,9.185985E-2,2E0,1.1192407E-1,5.6532482E1,2E0,1E0,-2.839232E-2,1.4641131E0,5.4780085E-2,2E0,7.164415E1,2.6E1,3.1E1,1.7540164E0,1.02735534E-1,-1.0152469E-1,-7.013605E-2,-3.4288473E-2,-1.04308106E-1,-3.296302E-2,2.6640138E-2,-1.3816199E-1,-1.5530472E-2,-7.372742E-2,5.181556E-2,5.976674E-2,9.373563E-2,9.3779586E-2,3.0852526E-2],"split_indices":[2,5,2,0,2,7,2,9,3,0,0,8,0,1,9,6,0,0,0,9,1,3,3,0,0,0,0,0,0,0,0,0,0,0,0,0,0,0,0],"split_type":[0,0,0,0,0,0,0,0,0,0,0,0,0,0,0,0,0,0,0,0,0,0,0,0,0,0,0,0,0,0,0,0,0,0,0,0,0,0,0],"sum_hessian":[1.4674738E3,5.661651E2,9.013087E2,5.4780316E2,1.8361908E1,6.501229E2,2.5118582E2,4.9238162E2,5.5421547E1,9.9215765E0,8.4403305E0,6.0446136E2,4.566155E1,1.1184648E2,1.3933934E2,4.838396E2,8.542031E0,4.5317623E1,1.0103924E1,5.684002E2,3.6061157E1,2.073247E1,9.111401E1,1.746243E1,1.21876915E2,4.622436E2,2.1595993E1,1.7881826E1,2.7435797E1,9.6764206E1,4.71636E2,1.9169107E1,1.6892052E1,6.98958E0,1.3742889E1,3.8509445E1,5.260457E1,1.1923538E1,5.538891E0],"tree_param":{"num_deleted":"0","num_feature":"10","num_nodes":"39","size_leaf_vector":"1"}},{"base_weights":[-1.1916351E-1,-5.0112706E-1,3.2150683E-1,-7.033127E-1,6.42098E-2,1.0419704E-1,8.264763E-1,-7.3334295E-1,7.041215E-1,-7.983089E-1,3.4625736E-1,-2.7858058E-1,3.9079523E-1,-6.469538E-3,8.658669E-1,-8.8581556E-1,-5.0095E-1,3.3997513E-2,9.248059E-2,-9.7828054E-1,-1.3537267E-1,1.4048344E-1,1.2594054E0,-3.8405243E-1,1.0437659E-1,2.7280763E-1,8.6627907E-1,5.9957236E-1,9.783519E-1,-9.230494E-2,-2.960288E-2,-5.7415582E-2,2.7785216E-2,-1.0511638E-1,-4.9905106E-2,2.150437E-2,-4.3347295E-2,-8.996575E-3,1.01290695E-1,5.2417286E-2,1.4282434E-1,-4.9681E-2,6.872427E-2,1.7014058E-2,9.185522E-2,1.34775E-2,9.454815E-2,3.804449E-2,9.836718E-2,5.3629763E-2,1.0423149E-1],"categories":[],"categories_nodes":[],"categories_segments":[],"categories_sizes":[],"default_left":[0,0,0,0,0,0,0,0,0,0,0,0,0,0,0,0,0,0,0,0,0,0,0,0,0,0,0,0,0,0,0,0,0,0,0,0,0,0,0,0,0,0,0,0,0,0,0,0,0,0,0],"id":26,"left_children":[1,3,5,7,9,11,13,15,17,19,21,23,25,-1,27,29,31,-1,-1,33,35,37,39,41,-1,43,45,47,49,-1,-1,-1,-1,-1,-1,-1,-1,-1,-1,-1,-1,-1,-1,-1,-1,-1,-1,-1,-1,-1,-1],"loss_changes":[2.345314E2,8.534717E1,7.09265E1,2.3752869E1,4.8323975E1,4.9867462E1,6.885666E0,1.8647034E1,6.495681E-1,5.71047E0,2.7920721E1,2.7567577E1,1.4338158E1,0E0,4.9965363E0,6.842407E0,1.2460056E1,0E0,0E0,8.15094E-1,1.3067055E0,2.4852207E1,2.6494522E0,2.2220987E1,0E0,1.3739523E1,2.8382912E0,4.501917E0,3.1013641E0,0E0,0E0,0E0,0E0,0E0,0E0,0E0,0E0,0E0,0E0,0E0,0E0,0E0,0E0,0E0,0E0,0E0,0E0,0E0,0E0,0E0,0E0],"parents":[2147483647,0,0,1,1,2,2,3,3,4,4,5,5,6,6,7,7,8,8,9,9,10,10,11,11,12,12,14,14,15,15,16,16,19,19,20,20,21,21,22,22,23,23,25,25,26,26,27,27,28,28],"right_children":[2,4,6,8,10,12,14,16,18,20,22,24,26,-1,28,30,32,-1,-1,34,36,38,40,42,-1,44,46,48,50,-1,-1,-1,-1,-1,-1,-1,-1,-1,-1,-1,-1,-1,-1,-1,-1,-1,-1,-1,-1,-1,-1],"split_conditions":[1.2912254E0,7.966797E1,3.8E1,1E0,1.8E1,6.1706516E1,3.0926363E1,2.3E1,3.6E1,1E0,1E0,2.052538E0,1E0,-6.469538E-3,1.5387249E0,5E0,1E0,3.3997513E-2,9.248059E-2,1.6E1,1.0036189E2,1E0,2.6E1,1E0,1.0437659E-1,5E0,1.5E1,5.2E1,2E0,-9.230494E-2,-2.960288E-2,-5.7415582E-2,2.7785216E-2,-1.0511638E-1,-4.9905106E-2,2.150437E-2,-4.3347295E-2,-8.996575E-3,1.01290695E-1,5.2417286E-2,1.4282434E-1,-4.9681E-2,6.872427E-2,1.7014058E-2,9.185522E-2,1.34775E-2,9.454815E-2,3.804449E-2,9.836718E-2,5.3629763E-2,1.0423149E-1],"split_indices":[0,1,3,7,3,1,1,3,3,4,5,0,6,0,0,9,5,0,0,3,1,6,3,5,0,9,3,3,9,0,0,0,0,0,0,0,0,0,0,0,0,0,0,0,0,0,0,0,0,0,0],"split_type":[0,0,0,0,0,0,0,0,0,0,0,0,0,0,0,0,0,0,0,0,0,0,0,0,0,0,0,0,0,0,0,0,0,0,0,0,0,0,0,0,0,0,0,0,0,0,0,0,0,0,0],"sum_hessian":[1.391409E3,7.452796E2,6.4612946E2,5.4877356E2,1.9650604E2,4.5257397E2,1.9355547E2,5.37778E2,1.0995542E1,4.7972572E1,1.4853346E2,1.9378487E2,2.5878912E2,8.1659975E0,1.8538947E2,3.230281E2,2.1474991E2,5.107809E0,5.8877325E0,3.7355698E1,1.0616876E1,1.22159256E2,2.637421E1,1.8012727E2,1.3657588E1,2.0860033E2,5.0188793E1,5.6934418E1,1.2845505E2,3.0331454E2,1.9713558E1,1.9653845E2,1.8211454E1,3.1388554E1,5.967146E0,5.0082755E0,5.6085997E0,9.734312E1,2.4816143E1,5.692012E0,2.06822E1,1.6345891E2,1.6668367E1,1.810747E2,2.752562E1,5.1671586E0,4.5021633E1,3.751991E1,1.941451E1,1.7423569E1,1.1103148E2],"tree_param":{"num_deleted":"0","num_feature":"10","num_nodes":"51","size_leaf_vector":"1"}},{"base_weights":[-1.3653499E-1,-9.2229104E-1,3.1175315E-1,-9.968803E-1,-6.236287E-1,9.686561E-2,7.2930086E-1,-1.0125866E-1,-6.2237936E-1,-8.489167E-1,8.562531E-2,-1.4027628E-2,6.6469747E-1,5.542566E-1,9.5522225E-1,-9.378325E-2,1.6054628E-2,-9.1687256E-1,-4.251707E-3,-9.666774E-2,4.3396482E-1,-6.591812E-2,1.13089316E-1,2.8206028E-2,7.7004796E-1,6.0727756E-2,6.965417E-1,6.12038E-1,1.0001995E-1,-4.6403324E-3,-1.0043644E-1,-5.580639E-4,1.1788873E-1,-2.0871682E-2,2.4985835E-2,4.811501E-2,-3.609487E-2,5.6335885E-2,1.13382876E-1,-1.9237166E-2,1.0046808E-1,4.4999465E-2,8.627541E-2,1.7922578E-2,9.540891E-2],"categories":[],"categories_nodes":[],"categories_segments":[],"categories_sizes":[],"default_left":[0,0,0,0,0,0,0,0,0,0,0,0,0,0,0,0,0,0,0,0,0,0,0,0,0,0,0,0,0,0,0,0,0,0,0,0,0,0,0,0,0,0,0,0,0],"id":27,"left_children":[1,3,5,7,9,11,13,-1,15,17,19,21,23,25,27,-1,-1,29,-1,-1,31,33,-1,35,37,39,41,43,-1,-1,-1,-1,-1,-1,-1,-1,-1,-1,-1,-1,-1,-1,-1,-1,-1],"loss_changes":[4.699495E2,1.0173981E1,7.6171814E1,1.6408386E0,1.597364E1,3.5407932E1,1.0882233E1,0E0,4.6297026E0,4.104721E0,9.546058E0,2.8074274E1,6.138546E0,1.1542374E1,1.310997E0,0E0,0E0,5.260929E0,0E0,0E0,6.3573565E0,2.0425087E1,0E0,2.6562893E0,5.2850266E0,9.275287E0,4.8554115E0,2.347764E0,0E0,0E0,0E0,0E0,0E0,0E0,0E0,0E0,0E0,0E0,0E0,0E0,0E0,0E0,0E0,0E0,0E0],"parents":[2147483647,0,0,1,1,2,2,3,3,4,4,5,5,6,6,8,8,9,9,10,10,11,11,12,12,13,13,14,14,17,17,20,20,21,21,23,23,24,24,25,25,26,26,27,27],"right_children":[2,4,6,8,10,12,14,-1,16,18,20,22,24,26,28,-1,-1,30,-1,-1,32,34,-1,36,38,40,42,44,-1,-1,-1,-1,-1,-1,-1,-1,-1,-1,-1,-1,-1,-1,-1,-1,-1],"split_conditions":[3E0,2E0,9E0,1E0,1.3994048E0,1E0,1.2E1,-1.0125866E-1,6.1706516E1,1.19965195E2,3.2993813E1,2.052538E0,2.1E1,5.7314156E1,2E0,-9.378325E-2,1.6054628E-2,1.1E1,-4.251707E-3,-9.666774E-2,1E0,1E0,1.13089316E-1,3.823549E1,1.1709054E2,1E0,3E0,3.5E1,1.0001995E-1,-4.6403324E-3,-1.0043644E-1,-5.580639E-4,1.1788873E-1,-2.0871682E-2,2.4985835E-2,4.811501E-2,-3.609487E-2,5.6335885E-2,1.13382876E-1,-1.9237166E-2,1.0046808E-1,4.4999465E-2,8.627541E-2,1.7922578E-2,9.540891E-2],"split_indices":[2,2,2,6,0,6,2,0,1,1,1,0,3,1,9,0,0,3,0,0,4,4,0,1,1,7,9,3,0,0,0,0,0,0,0,0,0,0,0,0,0,0,0,0,0],"split_type":[0,0,0,0,0,0,0,0,0,0,0,0,0,0,0,0,0,0,0,0,0,0,0,0,0,0,0,0,0,0,0,0,0,0,0,0,0,0,0,0,0,0,0,0,0],"sum_hessian":[1.3323384E3,4.836111E2,8.4872723E2,3.850974E2,9.851372E1,5.6116187E2,2.875654E2,3.6796152E2,1.7135893E1,7.4615776E1,2.3897938E1,4.702926E2,9.086926E1,1.6397255E2,1.2359286E2,1.2073453E1,5.0624404E0,6.8690216E1,5.925564E0,5.501946E0,1.8395992E1,4.5080356E2,1.9489048E1,1.3084558E1,7.77847E1,3.701375E1,1.269588E2,1.601361E1,1.0757925E2,6.4133363E0,6.227688E1,1.2193602E1,6.2023907E0,3.1065836E2,1.4014519E2,5.9374523E0,7.147105E0,5.1227455E1,2.6557245E1,2.9815586E1,7.1981606E0,5.2617413E1,7.4341385E1,7.7416883E0,8.271923E0],"tree_param":{"num_deleted":"0","num_feature":"10","num_nodes":"45","size_leaf_vector":"1"}},{"base_weights":[-1.3388582E-1,-6.6955465E-1,4.4708627E-1,-9.9358517E-1,-2.9348347E-1,3.542675E-1,1.0761716E-1,-1.0108321E-1,-6.0843873E-1,-5.140459E-1,1.7809434E-1,2.2412151E-1,8.335348E-1,-9.331855E-2,1.6407698E-2,-6.2159485E-1,3.7319523E-1,2.9955173E-1,-6.8183213E-1,-9.1064215E-2,4.781029E-1,4.5181757E-1,9.2235917E-1,-7.0721515E-2,2.3066511E-2,-4.3887835E-2,1.5147297E-1,1.2172794E-3,8.178455E-2,-1.3080017E-1,1.4077288E-2,-2.3449933E-2,6.868169E-2,5.4069437E-2,-5.8990266E-2,-2.848101E-2,7.8435235E-2,5.644207E-2,9.576734E-2],"categories":[],"categories_nodes":[],"categories_segments":[],"categories_sizes":[],"default_left":[0,0,0,0,0,0,0,0,0,0,0,0,0,0,0,0,0,0,0,0,0,0,0,0,0,0,0,0,0,0,0,0,0,0,0,0,0,0,0],"id":28,"left_children":[1,3,5,7,9,11,-1,-1,13,15,17,19,21,-1,-1,23,25,27,29,31,33,35,37,-1,-1,-1,-1,-1,-1,-1,-1,-1,-1,-1,-1,-1,-1,-1,-1],"loss_changes":[3.9084177E2,7.932077E1,3.480533E1,1.7133484E0,3.1690147E1,3.2660637E1,0E0,0E0,4.5523324E0,2.0007572E1,1.0393082E1,3.3306366E1,3.3839645E0,0E0,0E0,1.3678276E1,2.2014229E1,1.2825412E1,6.5601707E0,2.0942926E1,1.5711414E1,5.8868794E0,5.9677887E-1,0E0,0E0,0E0,0E0,0E0,0E0,0E0,0E0,0E0,0E0,0E0,0E0,0E0,0E0,0E0,0E0],"parents":[2147483647,0,0,1,1,2,2,3,3,4,4,5,5,8,8,9,9,10,10,11,11,12,12,15,15,16,16,17,17,18,18,19,19,20,20,21,21,22,22],"right_children":[2,4,6,8,10,12,-1,-1,14,16,18,20,22,-1,-1,24,26,28,30,32,34,36,38,-1,-1,-1,-1,-1,-1,-1,-1,-1,-1,-1,-1,-1,-1,-1,-1],"split_conditions":[5E0,2E0,1E0,1E0,1.3914584E0,1E0,1.0761716E-1,-1.0108321E-1,6.486163E1,1E0,1.0384724E2,3E0,1.205086E0,-9.331855E-2,1.6407698E-2,5E0,7.648267E1,6.3407005E1,4E0,1.8601928E0,2E0,8E0,2E0,-7.0721515E-2,2.3066511E-2,-4.3887835E-2,1.5147297E-1,1.2172794E-3,8.178455E-2,-1.3080017E-1,1.4077288E-2,-2.3449933E-2,6.868169E-2,5.4069437E-2,-5.8990266E-2,-2.848101E-2,7.8435235E-2,5.644207E-2,9.576734E-2],"split_indices":[2,2,7,6,0,6,0,0,1,5,1,9,0,0,0,9,1,1,9,0,8,2,9,0,0,0,0,0,0,0,0,0,0,0,0,0,0,0,0],"split_type":[0,0,0,0,0,0,0,0,0,0,0,0,0,0,0,0,0,0,0,0,0,0,0,0,0,0,0,0,0,0,0,0,0,0,0,0,0,0,0],"sum_hessian":[1.2539216E3,6.523179E2,6.016037E2,3.495213E2,3.0279657E2,5.2561475E2,7.5988976E1,3.329856E2,1.6535706E1,2.0624387E2,9.655271E1,4.145189E2,1.1109581E2,1.1495355E1,5.0403504E0,1.8421342E2,2.2030441E1,8.5174225E1,1.1378489E1,1.8525842E2,2.2926048E2,2.2120592E1,8.897522E1,1.6755101E2,1.6662422E1,1.3232524E1,8.797918E0,5.545147E1,2.9722755E1,6.1255937E0,5.252895E0,1.5700626E2,2.8252167E1,2.170347E2,1.2225786E1,6.9246635E0,1.5195929E1,9.51507E0,7.946015E1],"tree_param":{"num_deleted":"0","num_feature":"10","num_nodes":"39","size_leaf_vector":"1"}},{"base_weights":[-9.812478E-2,-3.7313333E-1,3.6708933E-1,-5.838477E-1,2.0845442E-1,1.596569E-1,8.0498177E-1,-6.8717676E-1,1.21803515E-1,-9.4446525E-2,6.8165153E-1,3.3449154E-2,8.6652666E-1,5.6145114E-1,9.778667E-1,-8.847206E-1,-4.3715027E-1,-9.935487E-2,3.379568E-1,-8.382652E-1,8.2182445E-2,-1.1501902E-1,9.6325284E-1,-9.425156E-2,6.7170024E-1,4.8091903E-1,1.0093995E0,-6.379232E-2,7.3578167E-1,8.576495E-1,1.0844268E-1,-9.122254E-2,2.3180416E-2,-8.636413E-2,-1.650782E-2,6.053133E-2,-1.9110609E-2,-5.5891643E-3,-1.1170161E-1,-4.7328677E-2,2.9900292E-2,1.983488E-2,-4.8080046E-2,1.289139E-1,7.047998E-2,-2.014797E-2,9.440028E-2,1.09714335E-2,7.69722E-2,2.0027427E-2,7.8759275E-2,1.06502645E-1,6.1644744E-2,4.8128657E-2,-4.6528634E-2,-1.0812833E-2,8.867821E-2,1.2524937E-1,7.362185E-2],"categories":[],"categories_nodes":[],"categories_segments":[],"categories_sizes":[],"default_left":[0,0,0,0,0,0,0,0,0,0,0,0,0,0,0,0,0,0,0,0,0,0,0,0,0,0,0,0,0,0,0,0,0,0,0,0,0,0,0,0,0,0,0,0,0,0,0,0,0,0,0,0,0,0,0,0,0,0,0],"id":29,"left_children":[1,3,5,7,9,11,13,15,17,19,21,23,25,27,29,31,33,-1,35,37,39,41,43,45,47,49,51,53,55,57,-1,-1,-1,-1,-1,-1,-1,-1,-1,-1,-1,-1,-1,-1,-1,-1,-1,-1,-1,-1,-1,-1,-1,-1,-1,-1,-1,-1,-1],"loss_changes":[1.5573456E2,9.385317E1,4.0959564E1,4.103958E1,2.93256E1,2.7465633E1,5.5623856E0,2.382016E1,1.7837227E1,1.6537539E1,1.8013145E1,2.1461899E1,2.084629E0,6.8716583E0,1.4014435E-1,8.5894165E0,2.5187489E1,0E0,8.82259E0,5.2029667E0,1.2451125E1,2.5865593E0,4.0662575E0,2.464366E1,2.3335648E0,1.0920866E0,6.7604065E-2,3.4128733E0,6.3452244E0,1.1893158E0,0E0,0E0,0E0,0E0,0E0,0E0,0E0,0E0,0E0,0E0,0E0,0E0,0E0,0E0,0E0,0E0,0E0,0E0,0E0,0E0,0E0,0E0,0E0,0E0,0E0,0E0,0E0,0E0,0E0],"parents":[2147483647,0,0,1,1,2,2,3,3,4,4,5,5,6,6,7,7,8,8,9,9,10,10,11,11,12,12,13,13,14,14,15,15,16,16,18,18,19,19,20,20,21,21,22,22,23,23,24,24,25,25,26,26,27,27,28,28,29,29],"right_children":[2,4,6,8,10,12,14,16,18,20,22,24,26,28,30,32,34,-1,36,38,40,42,44,46,48,50,52,54,56,58,-1,-1,-1,-1,-1,-1,-1,-1,-1,-1,-1,-1,-1,-1,-1,-1,-1,-1,-1,-1,-1,-1,-1,-1,-1,-1,-1,-1,-1],"split_conditions":[1.4064912E0,1E0,3.8E1,1.1709054E2,7.966797E1,1E0,4.5E1,1.1089635E0,1.6E1,2E0,2.3E1,1E0,1.5387249E0,1.5387249E0,5.4E1,4.6E1,2E1,-9.935487E-2,1.205086E0,2.8688385E1,1.7E1,1.6E1,3.2E1,1E0,1.4E1,8.4219086E1,4E0,5.347374E1,2E0,3.7404472E1,1.0844268E-1,-9.122254E-2,2.3180416E-2,-8.636413E-2,-1.650782E-2,6.053133E-2,-1.9110609E-2,-5.5891643E-3,-1.1170161E-1,-4.7328677E-2,2.9900292E-2,1.983488E-2,-4.8080046E-2,1.289139E-1,7.047998E-2,-2.014797E-2,9.440028E-2,1.09714335E-2,7.69722E-2,2.0027427E-2,7.8759275E-2,1.06502645E-1,6.1644744E-2,4.8128657E-2,-4.6528634E-2,-1.0812833E-2,8.867821E-2,1.2524937E-1,7.362185E-2],"split_indices":[0,4,3,1,1,5,3,0,3,9,3,6,0,0,3,3,3,0,0,1,3,3,3,7,3,1,9,1,9,1,0,0,0,0,0,0,0,0,0,0,0,0,0,0,0,0,0,0,0,0,0,0,0,0,0,0,0,0,0],"split_type":[0,0,0,0,0,0,0,0,0,0,0,0,0,0,0,0,0,0,0,0,0,0,0,0,0,0,0,0,0,0,0,0,0,0,0,0,0,0,0,0,0,0,0,0,0,0,0,0,0,0,0,0,0,0,0,0,0,0,0],"sum_hessian":[1.2151965E3,7.638495E2,4.513471E2,5.606993E2,2.0315018E2,3.0719263E2,1.441545E2,4.8910538E2,7.159391E1,1.24351326E2,7.879884E1,2.6154288E2,4.564974E1,6.1612663E1,8.2541824E1,2.7181113E2,2.1729424E2,1.1038529E1,6.055538E1,2.3143534E1,1.01207794E2,2.0733585E1,5.8065254E1,2.1864827E2,4.2894623E1,1.3521595E1,3.2128143E1,1.357161E1,4.804105E1,4.303726E1,3.9504566E1,2.6545483E2,6.35631E0,8.378359E1,1.3351065E2,4.013131E1,2.0424072E1,6.395031E0,1.6748503E1,2.8082022E1,7.312577E1,1.1413387E1,9.320199E0,2.3918402E1,3.4146854E1,1.989112E2,1.9737076E1,6.685288E0,3.6209335E1,7.9235806E0,5.5980144E0,2.6645803E1,5.482341E0,5.672176E0,7.8994346E0,7.3344216E0,4.070663E1,7.9318094E0,3.510545E1],"tree_param":{"num_deleted":"0","num_feature":"10","num_nodes":"59","size_leaf_vector":"1"}},{"base_weights":[-8.943451E-2,-8.4467643E-1,2.8802913E-1,-9.674476E-1,-4.3150845E-1,1.5160869E-1,8.446826E-1,-9.8729444E-1,-3.2744397E-4,-8.5844034E-1,-2.4750905E-2,-6.0519148E-2,4.9514386E-1,6.892125E-1,9.668828E-1,-1.007833E-1,-5.578388E-1,1.8452235E-2,-9.9606596E-2,-2.6498848E-1,1.2533607E-1,-1.2583563E-1,1.01117484E-1,6.0179703E-2,5.791066E-1,3.354938E-1,8.143794E-1,6.284998E-2,1.0056581E-1,-9.161497E-2,1.611395E-2,-6.353304E-2,5.6737866E-2,-3.982018E-2,1.36537915E-2,9.6071206E-2,-3.0727798E-2,5.135215E-2,1.0306002E-1,-2.1789247E-2,7.000837E-2,7.180355E-2,9.873566E-2],"categories":[],"categories_nodes":[],"categories_segments":[],"categories_sizes":[],"default_left":[0,0,0,0,0,0,0,0,0,0,0,0,0,0,0,0,0,0,0,0,0,0,0,0,0,0,0,0,0,0,0,0,0,0,0,0,0,0,0,0,0,0,0],"id":30,"left_children":[1,3,5,7,9,11,13,15,-1,17,19,21,23,25,27,-1,29,-1,-1,31,-1,33,-1,35,37,39,41,-1,-1,-1,-1,-1,-1,-1,-1,-1,-1,-1,-1,-1,-1,-1,-1],"loss_changes":[3.3249823E2,1.92966E1,5.894101E1,5.714691E0,1.5752874E1,4.5645897E1,2.2382736E0,2.0202332E0,0E0,6.5408974E0,1.4931149E1,2.727911E1,8.696304E0,2.8599129E0,4.585724E-1,0E0,4.167146E0,0E0,0E0,1.2952485E1,0E0,2.6244692E1,0E0,1.3464745E1,5.4011765E0,4.2274766E0,1.5047073E-1,0E0,0E0,0E0,0E0,0E0,0E0,0E0,0E0,0E0,0E0,0E0,0E0,0E0,0E0,0E0,0E0],"parents":[2147483647,0,0,1,1,2,2,3,3,4,4,5,5,6,6,7,7,9,9,10,10,11,11,12,12,13,13,14,14,16,16,19,19,21,21,23,23,24,24,25,25,26,26],"right_children":[2,4,6,8,10,12,14,16,-1,18,20,22,24,26,28,-1,30,-1,-1,32,-1,34,-1,36,38,40,42,-1,-1,-1,-1,-1,-1,-1,-1,-1,-1,-1,-1,-1,-1,-1,-1],"split_conditions":[3E0,2E0,1.1E1,6E0,3E0,1E0,1.3E1,1E0,-3.2744397E-4,1.2E1,1E0,1E0,4.159675E1,2.4E1,2E0,-1.007833E-1,6.252828E1,1.8452235E-2,-9.9606596E-2,1E0,1.2533607E-1,3E0,1.01117484E-1,1.8E1,5E0,3E0,4.8E1,6.284998E-2,1.0056581E-1,-9.161497E-2,1.611395E-2,-6.353304E-2,5.6737866E-2,-3.982018E-2,1.36537915E-2,9.6071206E-2,-3.0727798E-2,5.135215E-2,1.0306002E-1,-2.1789247E-2,7.000837E-2,7.180355E-2,9.873566E-2],"split_indices":[2,2,2,9,9,4,2,6,0,3,5,7,1,3,9,0,1,0,0,4,0,9,0,3,9,9,3,0,0,0,0,0,0,0,0,0,0,0,0,0,0,0,0],"split_type":[0,0,0,0,0,0,0,0,0,0,0,0,0,0,0,0,0,0,0,0,0,0,0,0,0,0,0,0,0,0,0,0,0,0,0,0,0,0,0,0,0,0,0],"sum_hessian":[1.1644945E3,3.8764453E2,7.7685E2,2.9780997E2,8.983455E1,6.249615E2,1.5188849E2,2.917799E2,6.0300746E0,4.3288536E1,4.654601E1,3.8688785E2,2.3807362E2,6.9767006E1,8.212148E1,2.7717725E2,1.4602642E1,5.0065837E0,3.8281956E1,3.9848618E1,6.697391E0,3.6549463E2,2.13932E1,3.8798244E1,1.9927538E2,1.9197031E1,5.0569973E1,1.0212044E1,7.190944E1,9.5627165E0,5.0399256E0,2.7742136E1,1.2106483E1,1.7907832E2,1.8641632E2,1.0775683E1,2.8022562E1,1.7586601E2,2.340936E1,7.7842336E0,1.1412797E1,3.5788002E1,1.4781973E1],"tree_param":{"num_deleted":"0","num_feature":"10","num_nodes":"43","size_leaf_vector":"1"}},{"base_weights":[-1.0135157E-1,